1.963079 
4.732530 
3.996351 
2.666464 
2.550222 
1.254333 
0.569911 
2.518060 
2.948485 
4.146139 
4.193600 
0.350488 
2.668656 
2.242158 
3.316760 
3.584126 
1.464974 
0.498536 
0.886599 
1.325740 
2.032644 
0.749927 
3.662255 
2.062149 
1.977589 
0.539854 
0.029587 
0.028908 
3.962069 
2.666576 
1.488172 
0.925147 
2.399106 
0.484524 
3.591611 
4.949328 
1.738857 
4.161522 
2.467389 
4.687342 
3.307661 
1.660989 
0.037830 
0.976317 
3.903146 
3.354591 
4.560443 
0.368121 
3.853127 
0.447041 
1.693861 
0.885771 
1.196968 
0.356116 
2.947920 
3.174556 
0.895970 
2.977507 
3.203464 
4.858038 
0.644083 
4.691637 
0.783186 
3.043190 
0.176160 
4.374797 
2.992518 
1.915017 
3.536319 
0.459907 
1.602360 
1.843980 
2.120895 
1.640190 
2.820297 
1.024042 
4.994781 
2.380740 
1.392162 
3.847908 
2.827781 
3.086023 
4.733679 
4.024749 
3.442138 
2.681599 
2.199305 
4.338108 
0.659106 
0.402770 
4.196147 
1.303190 
0.094406 
4.979333 
4.346379 
0.270566 
4.354130 
2.338897 
2.185584 
2.890450 
2.798804 
3.787943 
4.734429 
4.919700 
0.428134 
2.554726 
0.943741 
0.422915 
4.935466 
2.335903 
4.270823 
2.763247 
0.421926 
4.004502 
1.787995 
3.864064 
1.686101 
3.987301 
3.202173 
2.345207 
4.390070 
2.398319 
3.648396 
4.484477 
2.377652 
2.994776 
4.755043 
1.731782 
0.333673 
1.940626 
4.622231 
3.132477 
0.728570 
4.356661 
3.052176 
1.156704 
1.911387 
3.995917 
1.579618 
1.846853 
1.331820 
0.850441 
4.610100 
1.753746 
4.854943 
1.398095 
0.617811 
1.541044 
0.385396 
3.819983 
3.886251 
4.775466 
1.218303 
2.534647 
4.259943 
3.595955 
0.529423 
4.014986 
0.327738 
0.863097 
0.955612 
4.949970 
3.995574 
1.684182 
4.306631 
2.047751 
2.840886 
1.218018 
1.043668 
4.420504 
3.064871 
2.375489 
0.270945 
2.674971 
4.129235 
0.125889 
4.073067 
4.747046 
1.666933 
4.458463 
3.567030 
0.553184 
4.233930 
4.785333 
3.087832 
3.493872 
3.381288 
3.617255 
2.508858 
3.709026 
4.480352 
3.464470 
3.658996 
3.475926 
0.148652 
2.965627 
0.523677 
2.989538 
4.183645 
1.567345 
2.410042 
2.248516 
3.942833 
2.680987 
4.923488 
3.072068 
2.806876 
3.996554 
2.819115 
4.473809 
3.455017 
1.386144 
0.026993 
2.688946 
1.171477 
3.114825 
1.182819 
4.552765 
1.732080 
3.691677 
3.261792 
1.212432 
2.156147 
1.920788 
4.688358 
2.304800 
4.886415 
0.212035 
0.294338 
4.070060 
1.779379 
2.704380 
1.318576 
0.722213 
0.385368 
1.242064 
3.794281 
3.192244 
0.238618 
1.613396 
2.666053 
3.693635 
2.999540 
2.693046 
1.382581 
4.171017 
0.807871 
2.565400 
3.723783 
2.539952 
1.257077 
1.985574 
3.752384 
3.413224 
3.906362 
3.440742 
0.718024 
3.792777 
3.652776 
1.012362 
2.862836 
0.432156 
3.716743 
4.181413 
1.154369 
4.102110 
0.423476 
4.948650 
2.294354 
0.662094 
1.562046 
4.960407 
4.355729 
4.561586 
2.653453 
0.738311 
3.732603 
3.461324 
3.303711 
2.456385 
1.001276 
4.560788 
4.441960 
4.753660 
2.974013 
3.348322 
3.194402 
3.692037 
2.141099 
1.847178 
4.704400 
2.279334 
3.421142 
4.185348 
3.433702 
2.523252 
4.608825 
3.382353 
4.817605 
0.270919 
4.944398 
4.778012 
4.626648 
4.505984 
2.431466 
0.364959 
3.238587 
0.892790 
3.668670 
0.694972 
1.894066 
3.229458 
0.136932 
1.647726 
1.203471 
3.485254 
4.842127 
4.895508 
0.626353 
1.689305 
4.599907 
0.630288 
3.968639 
3.021049 
4.815636 
2.402341 
0.544301 
4.424460 
0.784694 
0.361907 
4.695379 
0.729092 
0.139920 
4.322027 
0.235076 
2.571385 
4.686986 
3.473663 
3.464175 
3.355656 
4.168635 
0.358241 
1.585114 
4.305567 
2.005966 
2.788584 
2.790821 
1.848093 
2.684092 
3.417173 
3.537399 
2.284000 
4.047461 
2.506037 
0.305049 
3.863097 
4.908379 
0.849351 
3.287557 
0.693073 
1.211258 
2.982936 
1.422165 
1.351177 
2.304964 
1.657241 
3.922563 
1.991950 
0.130904 
2.386738 
0.347605 
4.299539 
2.744978 
1.932719 
3.605106 
4.750945 
4.721303 
1.395926 
1.599038 
2.405396 
4.813099 
0.136437 
4.689396 
3.860560 
2.642474 
4.994445 
2.723657 
2.550853 
0.843796 
1.011214 
3.243925 
2.055054 
3.994151 
4.666090 
3.406231 
1.299114 
1.323331 
2.328794 
3.291064 
1.454235 
4.715531 
3.638669 
0.753774 
2.460510 
0.571389 
4.358879 
2.211455 
0.292693 
0.754805 
3.810493 
2.698089 
0.567905 
3.946930 
2.387485 
4.428465 
1.589404 
2.381930 
2.152122 
4.140257 
3.225726 
3.163337 
2.384182 
0.280780 
2.157487 
2.050273 
3.687011 
3.456602 
3.373604 
1.015805 
1.747666 
4.827838 
0.731337 
0.386336 
0.581612 
3.191846 
0.957724 
4.940491 
0.403301 
1.250417 
0.695297 
4.213795 
3.948505 
1.263201 
3.160725 
1.335990 
0.691666 
4.750129 
3.717920 
2.843788 
3.890386 
1.943646 
1.007125 
1.274569 
2.224426 
3.164612 
3.324841 
0.911437 
1.621214 
1.698445 
1.927242 
3.368880 
1.526284 
2.658578 
3.755216 
2.107896 
0.850425 
4.712940 
2.048388 
1.253726 
0.963357 
2.743684 
0.467521 
4.911862 
4.006886 
3.628246 
1.247853 
4.698551 
3.378375 
4.965772 
2.542340 
2.268761 
1.909418 
3.549464 
3.543329 
4.133843 
1.714076 
1.868171 
0.045280 
3.335290 
3.566616 
1.972522 
1.704170 
0.092900 
4.631101 
0.459386 
2.200796 
0.481525 
0.172326 
4.249184 
1.735252 
1.135683 
1.992868 
2.202773 
1.047546 
0.999753 
0.831018 
2.295398 
0.698304 
4.209393 
2.261171 
3.240644 
1.478154 
4.170589 
1.790108 
0.021483 
3.304433 
3.504184 
1.889654 
3.349713 
1.839475 
0.456270 
0.322235 
3.543645 
0.549170 
4.953336 
4.003031 
2.749966 
0.434861 
4.175357 
1.999150 
2.170113 
0.311040 
3.992017 
4.372885 
1.358586 
4.991770 
0.203903 
3.653984 
0.690075 
4.413296 
0.915155 
3.930719 
0.891450 
0.085744 
0.720827 
0.912933 
3.390177 
4.225011 
2.802587 
1.739890 
1.064486 
3.258857 
2.062125 
4.608131 
3.808028 
2.015461 
3.611162 
1.557994 
2.450322 
2.786519 
3.557143 
4.620435 
3.097558 
2.549161 
3.993320 
4.456144 
2.540931 
4.197224 
3.110129 
3.231006 
3.610519 
4.025284 
2.161725 
4.501969 
4.111029 
2.882552 
0.414902 
2.501206 
2.107563 
3.217490 
4.241096 
3.172049 
1.476347 
1.303220 
2.780180 
0.284375 
3.318681 
1.391342 
1.842369 
0.769003 
4.177860 
0.399512 
0.389438 
2.275419 
2.948673 
4.382758 
1.731564 
0.489604 
3.579981 
4.841693 
3.720610 
2.190500 
3.866977 
0.882335 
1.692470 
2.978006 
3.764887 
2.107372 
0.479212 
0.872451 
0.324862 
4.720307 
4.044500 
1.801209 
1.023528 
1.824680 
2.085584 
4.342209 
3.216022 
3.927952 
0.111212 
2.393882 
4.327465 
0.500649 
4.669301 
2.276137 
4.883407 
1.400864 
2.765742 
3.463388 
1.242557 
1.486352 
0.653888 
0.109534 
2.368687 
2.346358 
3.087540 
1.133575 
4.453730 
3.566752 
2.006025 
4.778592 
3.287059 
1.050525 
1.579801 
4.310587 
2.875205 
3.665385 
3.652795 
1.091227 
2.593337 
3.764007 
3.485109 
1.920802 
4.264656 
3.154409 
4.196939 
4.148063 
4.555274 
1.962681 
2.611451 
0.797831 
3.449033 
3.265340 
0.907365 
0.817720 
0.611698 
3.994906 
1.951295 
0.065428 
2.561658 
3.957320 
4.844020 
0.848717 
0.007845 
1.423822 
0.159303 
2.883050 
0.089206 
3.812099 
3.974277 
2.682544 
2.576106 
2.459385 
4.603345 
1.840762 
0.613795 
3.800284 
0.988825 
0.169069 
0.762965 
3.600276 
0.966900 
4.211998 
1.865616 
1.874265 
0.029718 
2.477314 
0.869171 
1.981012 
2.542742 
3.430829 
0.938332 
2.386763 
4.279545 
0.946177 
3.810584 
4.438848 
3.829227 
3.899791 
3.250947 
2.803504 
1.582334 
0.827053 
0.262890 
1.185679 
2.667815 
0.876684 
4.985964 
3.656640 
1.045753 
0.748929 
2.256916 
2.012653 
4.960926 
4.122532 
3.886919 
4.990644 
1.599846 
4.756089 
1.971656 
4.142589 
3.186918 
2.909988 
1.529351 
2.466463 
3.856165 
0.339935 
1.905311 
2.685392 
4.239726 
0.156258 
0.488896 
0.822060 
0.983311 
0.751786 
2.007739 
3.651126 
1.628470 
1.993703 
2.307766 
2.674223 
2.742631 
4.564682 
4.686877 
2.703557 
3.687215 
3.573795 
2.694201 
0.287061 
3.329885 
4.665857 
4.429649 
1.516802 
2.575845 
0.959000 
3.983265 
1.432009 
1.298935 
0.888576 
4.117402 
0.538661 
1.044835 
4.606297 
1.360721 
2.028146 
0.358083 
3.368460 
0.679272 
1.986554 
0.362162 
2.987038 
4.660778 
3.104794 
2.551720 
4.347654 
0.808351 
1.238934 
2.921449 
3.502552 
1.525995 
1.251333 
3.168409 
0.955644 
2.768135 
0.744253 
1.914644 
1.751400 
2.176263 
3.213579 
2.639976 
1.293664 
3.752239 
3.684811 
0.899962 
0.112960 
0.712957 
1.258045 
3.481419 
1.392228 
3.244599 
3.843582 
4.379266 
2.905376 
1.948375 
1.930985 
2.253031 
2.756726 
3.169919 
0.174480 
1.259278 
4.695914 
1.425813 
4.427687 
0.651558 
4.193948 
0.171940 
2.566201 
0.945348 
2.348203 
0.779780 
3.585325 
3.641867 
4.532019 
2.270135 
4.541829 
4.644979 
2.983092 
0.799874 
3.126399 
4.375320 
4.044473 
1.969981 
3.754586 
1.949850 
3.918356 
0.685571 
4.202880 
1.675082 
3.855491 
4.377360 
2.934360 
3.551404 
0.803173 
2.362046 
4.202962 
4.997121 
2.533986 
1.769163 
0.942470 
4.882189 
2.548943 
4.527794 
3.524055 
2.080962 
1.797930 
3.065884 
1.725942 
4.781022 
3.865758 
4.852341 
4.156342 
2.910232 
1.822321 
2.910928 
4.860082 
0.740677 
3.596499 
4.062962 
2.415759 
2.451990 
3.440322 
0.350118 
1.003395 
4.243495 
2.712164 
0.206357 
4.240616 
0.246150 
1.975521 
0.183086 
0.128339 
4.524464 
4.710880 
3.652395 
1.605426 
1.508810 
1.718279 
3.331368 
1.289832 
0.584038 
3.183708 
0.446174 
3.494270 
0.006030 
3.357103 
3.354351 
0.746707 
1.953602 
2.417313 
3.162465 
4.405593 
0.857635 
3.512583 
0.408988 
0.101130 
1.224748 
0.615345 
4.341746 
1.470898 
2.590865 
4.524832 
1.599237 
2.115329 
4.235712 
0.251632 
3.720755 
0.744522 
1.969911 
2.052123 
2.034354 
2.553949 
0.235832 
2.480528 
1.048218 
0.241861 
0.837631 
4.402570 
0.988568 
2.791233 
1.819883 
4.151033 
2.196825 
2.677517 
2.663616 
2.605813 
2.778647 
3.888364 
3.221158 
2.120393 
0.359262 
0.812023 
1.645225 
1.958499 
2.927352 
0.880937 
2.210131 
1.648107 
1.625459 
4.180042 
3.700230 
3.659812 
1.733992 
3.936062 
1.140340 
2.782210 
4.177924 
1.977971 
2.184780 
0.166491 
4.769204 
4.004663 
4.317524 
1.966029 
1.682180 
1.981141 
4.571842 
4.460827 
0.869505 
2.793000 
1.581221 
1.228766 
3.605022 
3.226446 
3.187266 
1.532375 
4.107383 
0.397397 
3.180482 
0.732841 
4.577439 
1.880712 
4.392654 
1.311431 
0.816774 
0.532994 
4.093641 
4.994697 
2.510965 
1.278420 
0.161189 
2.280169 
0.283083 
4.478713 
4.246198 
1.965263 
1.459854 
3.818039 
1.426090 
2.329359 
1.611039 
3.007311 
3.558125 
0.216061 
1.233757 
1.745390 
1.748436 
0.341140 
2.142787 
4.928917 
1.073981 
1.720226 
1.809629 
0.466635 
3.031657 
2.626403 
0.999629 
2.125298 
2.621100 
3.510595 
3.403718 
2.782289 
0.790763 
3.686801 
2.261002 
0.036961 
0.652064 
3.720856 
3.855000 
2.078154 
1.050214 
0.466039 
0.085465 
4.608339 
0.682100 
1.319222 
1.353730 
2.430536 
1.660362 
3.486517 
2.369453 
2.781766 
0.215045 
4.159082 
3.200978 
3.248400 
1.795485 
4.200607 
0.373698 
4.416586 
2.711202 
3.777416 
2.198875 
3.501966 
2.464217 
4.459877 
3.538927 
3.116281 
3.180733 
2.393926 
0.194434 
4.230947 
2.859965 
0.279899 
3.839287 
3.542065 
1.599122 
0.193016 
0.972601 
3.259484 
3.689533 
3.332053 
0.993826 
3.906276 
2.501135 
4.194805 
2.154676 
4.296621 
3.395412 
2.528374 
3.713207 
1.106615 
1.305790 
0.912082 
4.608580 
3.770007 
0.371959 
3.147506 
1.886287 
3.552692 
0.541433 
2.080721 
2.783640 
3.401398 
2.360621 
1.622927 
1.943463 
3.959742 
1.815943 
2.916064 
2.219226 
0.505477 
1.248117 
3.213052 
4.411753 
3.749253 
2.407857 
1.566429 
3.045874 
0.803269 
4.094803 
1.759081 
1.909884 
0.400593 
2.671163 
1.518464 
4.170599 
3.043121 
4.665970 
1.056886 
1.595814 
0.207403 
3.137608 
4.379454 
3.608802 
0.498228 
1.002380 
0.552265 
4.457970 
2.818324 
3.468328 
1.677196 
3.323800 
4.716446 
4.890248 
2.735553 
3.465698 
2.298105 
4.301982 
1.511572 
3.101374 
3.396786 
3.270653 
0.011258 
3.797379 
0.941815 
1.529721 
2.967979 
3.984937 
1.195692 
4.024865 
0.580751 
1.403095 
2.162473 
4.960204 
0.011897 
2.660701 
0.962585 
0.564161 
2.118671 
3.780909 
4.032490 
3.795867 
2.104709 
3.748935 
3.686115 
4.840262 
2.214634 
0.984220 
4.142244 
3.726206 
4.085594 
2.539030 
1.996859 
4.096851 
1.336409 
2.938674 
0.626573 
4.304388 
1.923611 
1.822264 
3.329253 
2.504362 
3.225360 
0.491725 
2.464566 
3.237257 
3.152426 
3.427150 
3.801418 
0.271097 
2.208059 
2.833908 
4.066965 
4.312768 
1.582843 
2.753079 
4.153029 
3.797477 
3.737300 
3.295274 
2.523684 
2.822894 
0.834304 
4.520543 
1.919745 
2.170713 
2.459217 
2.546318 
1.475101 
4.382828 
4.368582 
4.804354 
1.887189 
2.593942 
0.296079 
4.351755 
0.831198 
3.448505 
2.778906 
4.632616 
3.719603 
4.986965 
2.466523 
2.786567 
4.299733 
4.049367 
0.539647 
3.452762 
2.846844 
4.276947 
1.748036 
0.370528 
2.099840 
2.582340 
4.891070 
4.019585 
4.753054 
2.350287 
1.565902 
1.228154 
1.733115 
0.934485 
1.032508 
3.620305 
3.528426 
1.328587 
2.972060 
4.359624 
4.777092 
0.750966 
3.992240 
3.496695 
0.737930 
1.458764 
1.283262 
0.037663 
0.508130 
1.822910 
3.490425 
3.354974 
1.099856 
0.238462 
3.725502 
3.199697 
2.820802 
3.616572 
2.219281 
2.573855 
0.966859 
3.785184 
3.802010 
2.699975 
4.719668 
4.834517 
1.320279 
3.248095 
1.163105 
4.292339 
2.607719 
0.940197 
0.043305 
1.599960 
4.436892 
0.781235 
3.058723 
0.720155 
0.818898 
3.566854 
2.543064 
4.309324 
1.921828 
3.642920 
4.547786 
0.647330 
1.842617 
2.368587 
4.263902 
4.061898 
4.942443 
0.230762 
2.847082 
3.744452 
2.930736 
2.566751 
3.578970 
4.251016 
0.814846 
4.742074 
3.543355 
3.422565 
0.682272 
3.586659 
0.022525 
0.119164 
4.367894 
3.081248 
0.839318 
0.186793 
1.648102 
3.382383 
4.496116 
3.569931 
2.025303 
4.043902 
4.217261 
3.867920 
1.412489 
3.481163 
2.929819 
1.354932 
3.711925 
0.776901 
0.099385 
1.642661 
3.343652 
3.678355 
0.893677 
4.158497 
3.420429 
4.437031 
2.581063 
4.102701 
3.023690 
2.603587 
4.221865 
2.391584 
0.684836 
0.061183 
2.578377 
2.332938 
3.443566 
2.074494 
0.902868 
0.468869 
1.118395 
0.120129 
4.336790 
2.530885 
3.601292 
2.266608 
3.885817 
2.313217 
3.043509 
3.985201 
3.955879 
1.387161 
2.663556 
4.849555 
0.545659 
1.083986 
4.286586 
3.126721 
0.186687 
2.310276 
0.730308 
4.408552 
4.701861 
1.415144 
4.469735 
2.280238 
3.748082 
2.913301 
4.354732 
4.650950 
3.382170 
0.473127 
4.771079 
2.718960 
3.004012 
3.372371 
4.985569 
1.889828 
0.685589 
3.029078 
0.875029 
4.641468 
4.416239 
3.538586 
4.491023 
4.961898 
4.622571 
3.777609 
3.088619 
4.809258 
1.087885 
3.818927 
4.217810 
0.789746 
0.234071 
3.687546 
3.069985 
3.982153 
1.600847 
2.424716 
3.633102 
4.983017 
2.897843 
3.404182 
2.701977 
0.901855 
1.776553 
2.687546 
2.791683 
2.462142 
0.716624 
3.666712 
2.103610 
0.132863 
2.205298 
1.594633 
0.094760 
1.827869 
0.372242 
3.183379 
1.637128 
1.460127 
2.002306 
0.854938 
2.249874 
2.236377 
4.542484 
0.319858 
1.218530 
1.143331 
2.744574 
4.851632 
1.126348 
0.642418 
3.255814 
3.828326 
1.544273 
0.032367 
1.515871 
4.335956 
2.494510 
2.232495 
3.002668 
4.598120 
2.365358 
0.207966 
1.192753 
2.460118 
2.035835 
1.564995 
0.643497 
3.672962 
3.025122 
2.645803 
4.527900 
0.274996 
4.882180 
4.070384 
0.594854 
1.100709 
0.213714 
3.339428 
0.952342 
1.340062 
3.971846 
4.343160 
0.168388 
0.526118 
4.240523 
1.684259 
4.862074 
1.735033 
3.916754 
2.864742 
1.333153 
1.282112 
3.072708 
2.525906 
3.742229 
0.108542 
4.090900 
4.385726 
3.781505 
2.116022 
2.031529 
3.309405 
2.391017 
1.913709 
2.379789 
2.985871 
3.014419 
2.593503 
1.325299 
3.966760 
3.933565 
0.307145 
3.174916 
4.101953 
0.833263 
2.415439 
0.786212 
0.695337 
4.150471 
4.702966 
3.560079 
0.483624 
0.985078 
1.632787 
3.009530 
4.727307 
1.741329 
2.100430 
4.113033 
0.522834 
4.216452 
1.144562 
3.832239 
1.607470 
3.058271 
1.212028 
4.593341 
1.072690 
3.805531 
0.918640 
0.039450 
2.739097 
1.225785 
3.214365 
1.841050 
2.059049 
0.629804 
2.627262 
2.754386 
4.780276 
2.330228 
1.314465 
0.263900 
3.315306 
2.947252 
3.273430 
3.042613 
4.688582 
0.373860 
2.155647 
0.211416 
4.590312 
3.300209 
4.043655 
1.197781 
1.358481 
0.255683 
0.791122 
2.431171 
4.061214 
1.709763 
2.470621 
1.800310 
2.935548 
0.684986 
3.641360 
4.994596 
1.314790 
1.268622 
2.748983 
1.095066 
3.598850 
4.063448 
1.358966 
1.914156 
2.010700 
4.632396 
4.956769 
1.699282 
0.006256 
2.112417 
1.910698 
4.596568 
0.412626 
0.954353 
0.794349 
1.771106 
1.210036 
1.585472 
4.202277 
0.271250 
3.295234 
1.672897 
2.071560 
1.230782 
2.357884 
0.712920 
1.225378 
3.672674 
1.981542 
3.974361 
4.767740 
0.580393 
3.037809 
1.126706 
2.494549 
0.048509 
0.759102 
2.451319 
1.747791 
0.765358 
4.563735 
3.658489 
0.361925 
4.976361 
4.612843 
1.156275 
1.747467 
0.822879 
2.741746 
0.949744 
1.094128 
1.036980 
2.622642 
3.165689 
2.267762 
4.980525 
3.878609 
3.493140 
3.653199 
0.860152 
2.467501 
3.420939 
1.440544 
0.505310 
4.547645 
3.935093 
0.553819 
0.306747 
1.386412 
2.301610 
1.072105 
0.950147 
0.960100 
1.434030 
0.926508 
0.572942 
2.590305 
2.673975 
1.395820 
0.332051 
3.623719 
2.489949 
1.369031 
1.246361 
0.655638 
3.636793 
1.226886 
4.534247 
2.129932 
4.880085 
0.394399 
4.597433 
-3.301025 
-1.834943 
-0.102743 
-2.848670 
-0.770036 
-0.656561 
-3.155417 
-2.156448 
-2.958172 
-4.227522 
-3.106595 
-3.918271 
-0.661553 
-4.033103 
-4.491213 
-3.251858 
-1.707078 
-0.887034 
-3.583908 
-0.330797 
-3.376983 
-4.952939 
-1.577158 
-4.032620 
-3.589731 
-2.804045 
-3.566868 
-0.719664 
-2.684130 
-3.961266 
-0.317097 
-0.985155 
-0.796209 
-0.419840 
-3.833825 
-1.566245 
-1.076401 
-1.989242 
-3.722693 
-4.034573 
-1.216765 
-1.829288 
-2.952844 
-1.878317 
-0.862391 
-2.444057 
-0.130175 
-2.569469 
-3.331091 
-3.714083 
-2.900266 
-1.708074 
-3.667022 
-4.477425 
-0.740694 
-2.256753 
-2.281470 
-4.307562 
-2.976417 
-4.965600 
-3.268828 
-3.293514 
-0.950755 
-4.065037 
-3.713354 
-4.784580 
-0.631282 
-4.789755 
-1.773823 
-4.353975 
-3.824328 
-2.990588 
-1.183263 
-1.777172 
-4.868905 
-2.045654 
-4.221229 
-4.999079 
-4.615123 
-2.552320 
-3.713162 
-2.515389 
-4.260393 
-2.380184 
-1.992814 
-4.636937 
-4.274283 
-4.308649 
-2.613355 
-4.239884 
-2.577477 
-0.906869 
-0.190639 
-1.642514 
-4.620223 
-4.975220 
-2.273796 
-4.409978 
-1.749043 
-1.627771 
-3.234306 
-4.739630 
-2.811033 
-0.011478 
-4.608535 
-4.856687 
-4.232707 
-4.607614 
-4.471810 
-1.785026 
-3.320776 
-1.987199 
-1.045419 
-0.700960 
-3.980012 
-1.046507 
-0.337897 
-3.254296 
-0.355156 
-2.951252 
-2.494180 
-2.932633 
-3.858121 
-2.684819 
-4.575147 
-3.478344 
-2.660039 
-1.848943 
-2.888322 
-4.409081 
-3.476713 
-1.122628 
-4.148712 
-1.287747 
-1.134106 
-3.757246 
-1.144434 
-0.366813 
-3.364861 
-0.616243 
-2.151839 
-1.685637 
-2.603442 
-3.197259 
-2.386597 
-1.583455 
-4.243765 
-2.724494 
-4.837750 
-4.598921 
-0.675746 
-2.331930 
-2.531554 
-4.533867 
-0.016749 
-2.106700 
-3.012211 
-2.676788 
-3.955643 
-0.900534 
-2.085869 
-2.432356 
-2.023162 
-1.234581 
-3.720103 
-3.157269 
-4.991827 
-4.864536 
-3.524081 
-3.356688 
-0.480780 
-0.675921 
-0.042324 
-3.084222 
-3.873179 
-2.428921 
-4.667676 
-3.116945 
-0.153415 
-4.505427 
-2.715866 
-0.829161 
-1.837357 
-0.247420 
-0.363028 
-1.854107 
-2.354120 
-3.375239 
-4.530894 
-1.309763 
-4.275773 
-1.616764 
-3.742119 
-1.298935 
-2.851344 
-2.472222 
-4.466203 
-2.843172 
-2.326758 
-2.980285 
-1.199859 
-2.807538 
-3.656206 
-1.242184 
-0.891760 
-2.529385 
-3.671105 
-0.559436 
-0.646330 
-3.824520 
-0.064863 
-3.362196 
-4.653681 
-1.902221 
-3.609616 
-0.016709 
-3.756327 
-0.963736 
-3.391948 
-3.287222 
-2.273499 
-2.667721 
-4.903986 
-1.015618 
-3.966656 
-2.755330 
-3.477840 
-3.422859 
-0.598502 
-0.804598 
-1.403144 
-1.798361 
-3.612136 
-0.059350 
-3.040545 
-4.503896 
-2.588735 
-1.711650 
-0.063332 
-3.235066 
-0.536169 
-0.128195 
-1.597262 
-0.189850 
-2.030416 
-0.206877 
-0.206558 
-0.786743 
-1.170613 
-3.598506 
-4.073965 
-3.444112 
-1.266227 
-3.977951 
-4.459730 
-0.232883 
-1.733281 
-2.937570 
-3.655742 
-2.331782 
-3.742167 
-0.058886 
-4.130144 
-2.354303 
-0.118236 
-2.170688 
-1.858199 
-2.706971 
-3.882338 
-1.921530 
-0.942037 
-4.418508 
-2.049726 
-2.539299 
-4.608357 
-4.080142 
-2.746176 
-4.814916 
-4.866885 
-3.916789 
-3.413422 
-3.940850 
-2.360901 
-4.679649 
-2.918801 
-1.820631 
-4.912532 
-4.652081 
-4.758201 
-3.568274 
-1.983864 
-3.500369 
-3.627160 
-1.114007 
-0.854672 
-3.745396 
-3.284695 
-2.712871 
-1.452368 
-2.167034 
-4.634401 
-2.394404 
-1.585541 
-1.684127 
-4.933703 
-1.193899 
-0.764268 
-2.679879 
-1.008814 
-0.631153 
-1.596668 
-4.422236 
-4.572003 
-3.957569 
-4.101886 
-2.490804 
-0.778201 
-4.014418 
-2.142885 
-0.536402 
-2.582692 
-4.126750 
-4.036770 
-1.209852 
-0.240756 
-4.891442 
-4.955248 
-3.525452 
-2.604312 
-1.407616 
-0.692486 
-2.238713 
-3.802020 
-2.278027 
-3.922840 
-3.735723 
-3.471925 
-4.687108 
-1.415602 
-4.480740 
-0.318261 
-3.012270 
-3.902976 
-4.890265 
-1.969839 
-3.004862 
-2.381068 
-2.748040 
-2.019279 
-4.523954 
-3.284441 
-4.601971 
-3.650703 
-2.321212 
-0.811823 
-3.891459 
-2.212653 
-0.767071 
-2.416911 
-4.816966 
-2.174687 
-3.109397 
-2.055679 
-0.976707 
-0.387424 
-0.978518 
-4.712430 
-3.859349 
-0.665626 
-1.128032 
-3.340089 
-0.983887 
-4.140302 
-2.243065 
-0.874151 
-1.110142 
-0.247927 
-3.255220 
-3.858182 
-2.267206 
-2.779174 
-2.142623 
-1.869178 
-1.429877 
-4.463835 
-2.681000 
-0.321336 
-1.676489 
-3.448072 
-2.738247 
-1.493454 
-0.622759 
-0.847644 
-3.549133 
-1.599466 
-1.235068 
-4.527651 
-1.311896 
0.094417 
0.193277 
2.439928 
3.434506 
1.177164 
1.580230 
0.677571 
2.051315 
2.690372 
0.925498 
0.306535 
1.548554 
3.192704 
3.085708 
3.691177 
0.061882 
4.515585 
3.155013 
2.742882 
4.836921 
4.831501 
1.190954 
2.575168 
1.324955 
1.813713 
3.422812 
4.874088 
3.413179 
4.657880 
4.401739 
4.725075 
4.752297 
4.595016 
2.165003 
3.186803 
0.772180 
3.745234 
3.864375 
2.823495 
1.435606 
4.789873 
3.130030 
2.984159 
2.982577 
1.215738 
1.675337 
3.044459 
0.731323 
4.830350 
0.787341 
0.568244 
4.661851 
1.978295 
3.143412 
0.986806 
3.792008 
1.566224 
0.860895 
2.205187 
1.224105 
0.262634 
1.930262 
0.976402 
4.857650 
4.095264 
4.163206 
0.629830 
2.840498 
3.027581 
3.453325 
4.276103 
2.817453 
1.583355 
2.260263 
0.800030 
2.799093 
3.935600 
3.844489 
3.530417 
3.765950 
4.631830 
4.098660 
3.427801 
1.610125 
2.242073 
4.414607 
0.402133 
3.808297 
0.275502 
2.607320 
0.032402 
0.538136 
4.537582 
1.008804 
0.395785 
3.632846 
0.172010 
1.025615 
1.473344 
3.199590 
4.478940 
0.749447 
1.017044 
1.062295 
3.009710 
1.817074 
3.861389 
1.945310 
0.661563 
2.391805 
0.711259 
0.293393 
1.490466 
4.139060 
1.903518 
3.732539 
3.553667 
2.305651 
2.540836 
3.829169 
4.912971 
2.573238 
4.367304 
4.450553 
3.582042 
4.763090 
3.083400 
3.754052 
0.788705 
4.556743 
1.953643 
0.267645 
0.306190 
2.970686 
1.329941 
3.315900 
4.787760 
0.191329 
0.261210 
0.449323 
2.583135 
0.972470 
0.742716 
4.073601 
0.111530 
2.646234 
2.806139 
3.665197 
4.951885 
0.346976 
2.494366 
4.864856 
2.920214 
1.861670 
4.315410 
1.502256 
1.624760 
2.398809 
0.256308 
2.413465 
1.955553 
2.209951 
2.681110 
2.261743 
0.180637 
4.011051 
0.577643 
4.968398 
4.202380 
0.838853 
0.417721 
1.785515 
1.811323 
1.160436 
0.869116 
1.922853 
3.806670 
3.665255 
0.588049 
3.758555 
4.012231 
3.082415 
3.623411 
1.932445 
4.944085 
2.938821 
3.434700 
1.568845 
0.337630 
3.691008 
3.982311 
2.293183 
0.900959 
1.663421 
4.554926 
1.081597 
0.674472 
0.132569 
1.049994 
4.876853 
0.971423 
1.467715 
1.662367 
2.782746 
2.628151 
2.521483 
4.705598 
1.434821 
1.186738 
0.293647 
0.193376 
0.198969 
3.376062 
3.816788 
2.131414 
3.320148 
1.755609 
0.566114 
4.888993 
2.093239 
4.257123 
3.871304 
4.386421 
0.158082 
0.534725 
3.941347 
1.239679 
1.209197 
4.073916 
2.289673 
1.086050 
0.045339 
3.757388 
2.748417 
2.828084 
1.385539 
0.269900 
2.533683 
2.820361 
1.456638 
2.827330 
3.013737 
1.655608 
1.203393 
1.830525 
3.787021 
4.523540 
3.586133 
4.353136 
4.412534 
0.679372 
3.610258 
3.283838 
0.065794 
3.768340 
3.818563 
4.007141 
0.008019 
0.027760 
3.081057 
2.297692 
1.113809 
3.126396 
1.055079 
3.862226 
0.954481 
2.440619 
4.132126 
3.488164 
0.260979 
0.588764 
1.315494 
3.274716 
2.244372 
2.518887 
0.105241 
1.031393 
2.042428 
3.691374 
0.384529 
1.454961 
4.370747 
3.994788 
4.738799 
4.436540 
2.763128 
3.557361 
3.443681 
2.771147 
3.585121 
1.524738 
0.068838 
4.698930 
4.651134 
1.123918 
3.561156 
0.605616 
3.564536 
2.693282 
4.093780 
3.825516 
3.282046 
0.409274 
2.100232 
0.526418 
2.928161 
2.205473 
1.557812 
4.970588 
0.896848 
1.942341 
1.425550 
0.267594 
0.937129 
1.164349 
4.704134 
3.700256 
4.721710 
3.147815 
1.471403 
3.306831 
4.672554 
1.540241 
3.005762 
4.323689 
2.664159 
1.566917 
4.929304 
1.228695 
4.260200 
4.023084 
0.054211 
2.542246 
4.432357 
2.154443 
3.068664 
2.360518 
4.359917 
4.626476 
2.331106 
0.256764 
1.568817 
3.756656 
0.524359 
2.505946 
4.921005 
0.228493 
1.206202 
4.642715 
3.376308 
2.677605 
2.949546 
3.048862 
4.217846 
0.955308 
2.372550 
1.882005 
2.522225 
2.301854 
3.110701 
1.782425 
1.324938 
3.164912 
4.324671 
0.757295 
0.319355 
2.393335 
3.117814 
4.679272 
2.019812 
0.448920 
4.936036 
3.588629 
4.205576 
0.460395 
1.094575 
4.126581 
0.688888 
2.300777 
3.769296 
4.065196 
4.978382 
1.718842 
2.114058 
4.196229 
2.674150 
4.486609 
1.078234 
0.196375 
1.788463 
4.188935 
1.978800 
3.113401 
2.353847 
1.303470 
3.870696 
2.673202 
3.696805 
1.988510 
2.352474 
0.716617 
2.437429 
2.288510 
4.305246 
1.643005 
2.748905 
0.399821 
0.769586 
3.437793 
2.700598 
4.538881 
2.502990 
2.678981 
1.257724 
4.617048 
1.875210 
3.931873 
4.103656 
2.953444 
4.128248 
0.892119 
2.142379 
1.107048 
4.005520 
4.496226 
2.410518 
2.876216 
2.169428 
1.107324 
4.864726 
4.521902 
1.823941 
2.302155 
1.810412 
1.129187 
3.945160 
4.559317 
1.529008 
4.714746 
2.997110 
4.229607 
4.253627 
0.500100 
1.908588 
0.511351 
0.117147 
3.783797 
4.443224 
4.220803 
1.737241 
3.571472 
0.112922 
3.879620 
4.678520 
4.118442 
3.375846 
2.089038 
1.994658 
0.545274 
3.196362 
1.859384 
0.067176 
0.020303 
4.161539 
1.877588 
1.149490 
3.106699 
1.436905 
2.678498 
2.821445 
4.434016 
1.908105 
2.075072 
4.934115 
3.816693 
2.586423 
0.051263 
2.600490 
2.029647 
4.272066 
4.337731 
0.601119 
4.384989 
3.217351 
0.279639 
3.503431 
1.593197 
2.368677 
0.498089 
2.138472 
0.565039 
2.357472 
2.205647 
0.585342 
1.519011 
4.083236 
1.734831 
4.625710 
0.520141 
4.413330 
2.447154 
4.954156 
1.321435 
4.522226 
4.888272 
0.138127 
2.108649 
4.939535 
2.738618 
4.138296 
4.211601 
2.076349 
4.739416 
3.596590 
0.293700 
0.019055 
2.100020 
1.886898 
2.387732 
2.598109 
4.025369 
2.952771 
4.955582 
1.231017 
3.538113 
1.474593 
0.314252 
0.272944 
1.100302 
0.834394 
4.686274 
3.547456 
0.788550 
1.007708 
3.069682 
0.676822 
1.145836 
0.178331 
0.616357 
3.884453 
4.316628 
4.827958 
0.960802 
4.056043 
3.424548 
1.254502 
4.075098 
0.524568 
3.141400 
1.462830 
3.122678 
2.166769 
4.415601 
3.078259 
3.397786 
2.953713 
4.552852 
3.712039 
3.226657 
0.653154 
4.546432 
2.912931 
4.200610 
0.334982 
3.920639 
2.270293 
1.011804 
0.066474 
2.448624 
1.628161 
3.950927 
1.765251 
1.456120 
4.911730 
0.821294 
4.880667 
1.166232 
4.896392 
0.405236 
4.307631 
1.359222 
3.527913 
1.474401 
0.774823 
1.606172 
4.872187 
3.728536 
1.159024 
3.584225 
1.955194 
1.812178 
3.130657 
4.868125 
1.012788 
3.465639 
3.788764 
3.283081 
4.477443 
3.855238 
0.731704 
1.105605 
2.806165 
2.496955 
2.561724 
2.717895 
3.318249 
2.442392 
3.884127 
3.214641 
2.847627 
3.191758 
4.573863 
1.375540 
4.666159 
0.348686 
2.981712 
4.538345 
4.077223 
4.140736 
3.122571 
1.032416 
0.952914 
1.253227 
0.900541 
1.965702 
4.718866 
4.689304 
0.248782 
4.196310 
3.544542 
0.980486 
0.301915 
1.350708 
3.477441 
2.863639 
4.068603 
1.795691 
0.306031 
2.952729 
0.010332 
3.153658 
1.144488 
4.584195 
4.529198 
0.810647 
4.932881 
2.510910 
0.348992 
4.010104 
1.651646 
3.471563 
0.042520 
2.604560 
4.724790 
0.943061 
4.570261 
4.443656 
0.632366 
4.819043 
3.639966 
4.176908 
0.799529 
3.941880 
0.527616 
4.276970 
1.805519 
4.596219 
1.072661 
2.111550 
2.548948 
1.082993 
0.265208 
3.693436 
0.667188 
4.794406 
4.504083 
0.600069 
2.305316 
4.853075 
4.610173 
3.956962 
3.324637 
4.652693 
1.561521 
3.049427 
0.595754 
1.131783 
2.493083 
1.228120 
0.950826 
1.133049 
0.405028 
1.750355 
0.074930 
0.932643 
1.027325 
1.880449 
0.528862 
2.099986 
3.991999 
3.077810 
3.182979 
4.257206 
1.771246 
3.850167 
4.051612 
1.275328 
4.450236 
1.356928 
1.128403 
4.060409 
0.313890 
4.453040 
3.713102 
1.875411 
2.502466 
4.308856 
3.007194 
4.995550 
0.536976 
3.958019 
1.128599 
0.942003 
0.708374 
1.203528 
1.874647 
1.735699 
3.083977 
2.403508 
3.835685 
2.075976 
0.481318 
2.018664 
1.333183 
2.252564 
0.868831 
0.384795 
3.527892 
0.319067 
1.741724 
4.656295 
4.379475 
2.055613 
4.109334 
3.092577 
3.931024 
1.611801 
2.401433 
1.938218 
1.607351 
2.938408 
0.896237 
2.735950 
3.880411 
1.604612 
3.939478 
0.755058 
3.340311 
2.023455 
3.158567 
2.175996 
4.099432 
3.639885 
4.194660 
0.432615 
0.892449 
0.063491 
0.817410 
4.420341 
0.382557 
2.559134 
4.076636 
4.762033 
4.614747 
3.185970 
2.854609 
3.545772 
4.797771 
0.256042 
0.483990 
1.405122 
3.194450 
1.380227 
4.141071 
2.074862 
2.984839 
3.080549 
2.829920 
1.325150 
0.104005 
0.988486 
3.501146 
4.203437 
4.628371 
2.695806 
4.636052 
0.520820 
2.759296 
0.453462 
4.941161 
3.141854 
3.012596 
4.017797 
2.903886 
2.627343 
2.203767 
0.758495 
1.173115 
2.001539 
1.014537 
1.657104 
3.406661 
4.208987 
3.037331 
2.547732 
1.283849 
1.022170 
0.628281 
4.113769 
2.347320 
0.732286 
0.102255 
0.848465 
4.935723 
4.730627 
3.544271 
4.571774 
0.251447 
1.303567 
0.025236 
0.192608 
4.445421 
3.037832 
4.210406 
2.349307 
0.665175 
1.414173 
3.107802 
1.838290 
3.415711 
4.122339 
3.495394 
1.822372 
3.331326 
1.532725 
4.370104 
4.615176 
2.554896 
4.998385 
3.728945 
4.902215 
0.730672 
3.831200 
0.750681 
0.666395 
3.561827 
4.294951 
0.238169 
3.813274 
0.598519 
0.263405 
4.005882 
0.043940 
3.301238 
3.216288 
2.393246 
3.966413 
4.630461 
0.501048 
0.804702 
3.046172 
4.623388 
4.300097 
4.868545 
2.954714 
0.832822 
4.238648 
2.569890 
3.387717 
4.237033 
1.298835 
3.289933 
4.967705 
0.130035 
4.040613 
0.634100 
3.691862 
3.335565 
0.872269 
2.505136 
3.934084 
1.135674 
1.511018 
3.978023 
4.436912 
4.727306 
1.371270 
3.403325 
4.357767 
1.872318 
4.208027 
2.403939 
1.495706 
3.508123 
2.272484 
4.450420 
4.340945 
1.511132 
2.010310 
2.718662 
0.746281 
3.396121 
1.008595 
0.713836 
3.449180 
0.059208 
1.349970 
2.141041 
3.394773 
2.222238 
4.646177 
2.328856 
3.357912 
1.157195 
1.306880 
2.794824 
0.884501 
2.678150 
1.198148 
0.242268 
4.550467 
0.406175 
2.646207 
1.046174 
3.914299 
4.918691 
0.496594 
3.255243 
1.429822 
2.516904 
0.983905 
2.177987 
0.836049 
2.002500 
2.893857 
4.285229 
2.061707 
4.243826 
1.426270 
0.456480 
1.466065 
1.072447 
2.785337 
4.823977 
2.229642 
4.092216 
2.618801 
3.114143 
1.770366 
3.816949 
3.356411 
1.320834 
4.223125 
1.002618 
2.367008 
3.137423 
0.921309 
2.863602 
1.392666 
2.351131 
0.380506 
2.376571 
4.529118 
1.216556 
4.379071 
2.422975 
0.501785 
1.440778 
1.666802 
1.928055 
1.897259 
3.132866 
3.000503 
4.682595 
2.956843 
0.230145 
3.774812 
0.575644 
3.344288 
0.545178 
4.392593 
1.700699 
1.866012 
3.615718 
2.703317 
4.233020 
1.753141 
3.624626 
2.096622 
3.145807 
0.975756 
2.477128 
0.522378 
0.504874 
3.693684 
4.901449 
2.927849 
4.195469 
1.342227 
4.594651 
1.123524 
3.239486 
2.727517 
4.124027 
2.922081 
0.684360 
4.354172 
1.696893 
1.260004 
2.698460 
2.242071 
0.652598 
4.399159 
4.108084 
4.268315 
2.102476 
3.341104 
1.021456 
0.727102 
0.437726 
4.167264 
1.702858 
2.914854 
4.689641 
2.207732 
1.608538 
4.591091 
0.135582 
0.804007 
0.933318 
4.730232 
1.927531 
4.172804 
2.457749 
1.051558 
2.094886 
3.142109 
0.405730 
3.791779 
4.402114 
3.104190 
1.033851 
0.054711 
2.503350 
0.141934 
4.323027 
4.605826 
3.483038 
0.344483 
0.332928 
3.920764 
4.511746 
2.035786 
1.835618 
4.201388 
4.243519 
3.444156 
3.792479 
4.379100 
4.248163 
4.725798 
4.109333 
1.175695 
3.898602 
1.567082 
2.227253 
0.993488 
4.709192 
2.632984 
4.785267 
4.111305 
0.737174 
0.819117 
4.166017 
3.240524 
0.961051 
3.489043 
2.846349 
4.444089 
3.833527 
3.179277 
3.364853 
3.345273 
0.215064 
0.200471 
2.546661 
4.458582 
3.644628 
1.339140 
3.837683 
2.892791 
1.064938 
2.947016 
4.068486 
4.963540 
4.514098 
1.295739 
0.957027 
4.223290 
3.928723 
0.742294 
3.334595 
4.665897 
1.561411 
2.500612 
2.906420 
2.522463 
0.989655 
0.752770 
1.966552 
4.823182 
3.932047 
0.331405 
3.168455 
4.147111 
0.531877 
0.715117 
3.605693 
4.176504 
2.054257 
2.443376 
2.069295 
3.119195 
0.390392 
1.137781 
3.082735 
4.904490 
2.433521 
4.039762 
4.127779 
1.362244 
4.782056 
2.462375 
1.028141 
1.343467 
4.962986 
3.934562 
3.865930 
0.952642 
4.687332 
0.832481 
0.775824 
3.619379 
1.163887 
3.944280 
2.766490 
1.695763 
4.659396 
1.372183 
0.872267 
1.713654 
3.815559 
2.941563 
4.832849 
4.205951 
4.079344 
2.915584 
4.110441 
1.512865 
1.955345 
3.238220 
2.875109 
1.737401 
0.700595 
3.903250 
3.080868 
0.663581 
2.837811 
1.946797 
1.616223 
2.525143 
2.779279 
2.392047 
1.144522 
3.943165 
1.336327 
3.911011 
0.638928 
0.995724 
0.283194 
1.511196 
2.709377 
4.098753 
4.452758 
2.542226 
3.304704 
3.532102 
0.457810 
2.415144 
0.044967 
2.413155 
0.653364 
2.920075 
4.150557 
1.353959 
1.823325 
2.231424 
2.017540 
4.661136 
4.178221 
3.633763 
2.186279 
1.957500 
1.025810 
3.330801 
0.900665 
2.362137 
2.241812 
1.539594 
3.357861 
2.525006 
3.050790 
1.067238 
1.623759 
2.503548 
3.609464 
4.928463 
1.035650 
4.067274 
2.343607 
1.080617 
1.480429 
2.996971 
4.000692 
0.630986 
4.350930 
0.824018 
2.862410 
1.368470 
0.485154 
2.040631 
2.671433 
3.998131 
1.028044 
1.002234 
4.898797 
3.390181 
3.244046 
1.438390 
1.748042 
0.769052 
4.489180 
2.815280 
2.392811 
1.992728 
1.424745 
2.321274 
3.028378 
0.492019 
4.664881 
4.108995 
1.972448 
2.661853 
3.109687 
2.603434 
2.012783 
3.933705 
0.465843 
3.381253 
4.418859 
2.506474 
3.383486 
2.090292 
1.504605 
4.411530 
3.092525 
1.403402 
2.801711 
1.336571 
2.841792 
4.549752 
2.105623 
2.330972 
2.365033 
4.498435 
4.323699 
3.789777 
1.819708 
2.352077 
4.281796 
1.484590 
1.461072 
1.254244 
4.146442 
4.570760 
3.857678 
1.159225 
3.504465 
4.323521 
4.540478 
2.923324 
1.829996 
2.923964 
0.013615 
3.334601 
2.335494 
3.106141 
4.738003 
0.137204 
4.442712 
2.579794 
4.686957 
1.548335 
4.910766 
2.051989 
1.046770 
4.234466 
0.841766 
2.866478 
1.586543 
0.123562 
4.351068 
3.047615 
1.377806 
3.497510 
2.618375 
0.235484 
4.656735 
1.122840 
4.559006 
4.197214 
4.046163 
1.389001 
2.121178 
4.059778 
4.723602 
4.456672 
2.165919 
4.461605 
4.593876 
1.608631 
2.041399 
4.280832 
3.156967 
1.952165 
1.332822 
4.203736 
1.186631 
2.174588 
2.070214 
2.773174 
2.298150 
1.421282 
0.820789 
3.675957 
4.918792 
3.439164 
3.911441 
4.575528 
4.562004 
3.470447 
3.772741 
3.608167 
4.859448 
0.893919 
2.667946 
4.583050 
0.350591 
4.833865 
4.044655 
4.944467 
1.442496 
1.086055 
4.225299 
4.599462 
3.038220 
0.558120 
3.803198 
4.224851 
2.732708 
0.873412 
1.998025 
0.030859 
2.294694 
2.818815 
3.706815 
2.213487 
1.257979 
2.618257 
1.789014 
0.819983 
1.088704 
0.561756 
4.428150 
0.948152 
1.455675 
2.096096 
0.531202 
1.806265 
1.929960 
4.575857 
1.750732 
3.372456 
0.661912 
0.976030 
2.971918 
3.700132 
1.534151 
1.775117 
2.924983 
4.266859 
2.648529 
4.923008 
4.297718 
4.943223 
2.741822 
3.004534 
2.156710 
3.999801 
0.622791 
3.945724 
4.819784 
1.711494 
4.507480 
4.247934 
2.659646 
0.963155 
1.344030 
3.190848 
2.769420 
3.273990 
2.766705 
4.520152 
1.646446 
3.428617 
0.496182 
4.618364 
2.128749 
2.030332 
1.393481 
0.053732 
1.297192 
4.042010 
4.976739 
0.594910 
3.985234 
2.718562 
3.599443 
1.141944 
1.718363 
4.222234 
0.087668 
1.538147 
0.933728 
4.595148 
0.786081 
3.593374 
0.558302 
2.130111 
1.784222 
3.327722 
0.404101 
4.550927 
2.847874 
2.050548 
2.979543 
3.344056 
1.668912 
0.108292 
0.374388 
3.062394 
0.162024 
1.671580 
2.104404 
0.138763 
2.266489 
1.089638 
2.857325 
0.865933 
2.231581 
4.575688 
0.088167 
2.319249 
1.113835 
1.021895 
1.914397 
1.899916 
4.615269 
2.472699 
4.030027 
1.399490 
0.800422 
4.434129 
0.950417 
3.648295 
1.484677 
3.929961 
1.992351 
3.153589 
4.038253 
2.366739 
1.215983 
4.200277 
4.038319 
3.320387 
4.339040 
1.304808 
4.410025 
2.196365 
2.170741 
1.641606 
1.772053 
2.258907 
3.960855 
2.885888 
3.280802 
0.875252 
4.785804 
2.896071 
3.347951 
3.815832 
4.295561 
4.148373 
3.249960 
0.245978 
2.796668 
4.734637 
4.175939 
4.789019 
2.888227 
3.214192 
2.155758 
-4.104209 
-2.414469 
-1.194077 
-2.424597 
-1.753509 
-2.498885 
-1.834621 
-3.949874 
-4.669625 
-3.476228 
-0.721927 
-1.928533 
-2.437083 
-3.607815 
-0.209335 
-3.312335 
-3.393619 
-3.105406 
-1.660286 
-2.209450 
-2.400967 
-0.808659 
-0.459411 
-2.646945 
-3.605327 
-0.194048 
-1.822884 
-3.394346 
-3.082274 
-0.037076 
-0.550104 
-2.186484 
-2.451545 
-1.744181 
-4.611080 
-4.205054 
-4.243066 
-1.445702 
-3.154928 
-3.912692 
-4.921929 
-3.876855 
-0.841224 
-2.359012 
-2.484670 
-1.050559 
-0.671347 
-0.878289 
-4.155965 
-2.331633 
-3.087739 
-1.556932 
-3.140291 
-3.547150 
-4.203878 
-1.745618 
-3.741198 
-1.026762 
-0.139964 
-1.823472 
-1.063838 
-0.690068 
-4.009956 
-3.515383 
-2.434249 
-3.621036 
-2.720437 
-1.677315 
-0.066738 
-0.875364 
-0.590006 
-4.988667 
-4.752219 
-1.431231 
-2.347680 
-2.236889 
-2.481790 
-3.019027 
-3.115177 
-1.637755 
-0.350659 
-1.202916 
-3.194688 
-3.490951 
-4.750066 
-2.398565 
-0.236569 
-3.491264 
-3.425327 
-0.376532 
-0.314736 
-4.489165 
-1.066601 
-4.324691 
-3.004548 
-3.500850 
-2.945727 
-0.724985 
-0.178165 
-3.012465 
-1.600349 
-0.768171 
-3.001133 
-1.352569 
-2.199402 
-0.348813 
-3.589458 
-4.681192 
-3.367839 
-1.704635 
-1.318947 
-3.718499 
-2.907552 
-4.513635 
-2.209449 
-2.657617 
-1.912200 
-2.446018 
-1.148881 
-0.337527 
-2.822550 
-1.463617 
-4.826693 
-3.889151 
-0.788308 
-2.831241 
-2.390000 
-3.734035 
-3.556226 
-2.568165 
-1.746501 
-0.156575 
-3.336336 
-4.747634 
-1.509143 
-0.535738 
-0.096447 
-0.098601 
-0.216929 
-3.464286 
-1.803236 
-1.535876 
-2.182785 
-4.710787 
-1.049511 
-4.392234 
-2.368405 
-2.961711 
-1.838252 
-3.517286 
-3.299239 
-4.660801 
-4.980903 
-3.125931 
-3.549952 
-0.769211 
-0.957172 
-0.939953 
-4.503246 
-4.513398 
-3.508118 
-1.249748 
-4.669972 
-1.844454 
-0.997382 
-1.179116 
-2.380192 
-1.093829 
-1.277717 
-2.597121 
-4.558115 
-3.080953 
-4.132998 
-1.693184 
-2.791740 
-0.182509 
-1.133134 
-0.160145 
-3.144220 
-2.971386 
-3.677431 
-1.443458 
-2.632187 
-3.658334 
-4.569389 
-1.182140 
-4.427545 
-0.526561 
-2.122092 
-3.930791 
-0.039959 
-0.630210 
-0.180539 
-4.709931 
-2.474664 
-1.177920 
-0.889047 
-4.854856 
-2.271749 
-2.166764 
-2.451976 
-1.829864 
-0.247716 
-1.584974 
-3.570764 
-3.039456 
-1.767483 
-4.703898 
-3.199601 
-4.911703 
-2.675284 
-1.877032 
-1.355161 
-0.307471 
-0.535366 
-0.924550 
-1.489611 
-4.962911 
-1.451112 
-3.611703 
-3.893702 
-1.491071 
-4.241913 
-4.074240 
-1.201002 
-1.716577 
-0.252161 
-2.090048 
-1.571433 
-2.523910 
-4.256812 
-4.023409 
-4.353774 
-4.504528 
-0.608383 
-2.924538 
-2.543984 
-2.375865 
-2.628436 
-0.743586 
-2.287568 
-0.303720 
-2.620618 
-3.642729 
-0.611192 
-3.155984 
-4.567279 
-2.100802 
-3.118894 
-1.018391 
-0.712506 
-2.012596 
-2.509462 
-4.954419 
-1.086836 
-3.710463 
-1.670996 
-1.338997 
-0.800512 
-3.242429 
-3.862906 
-0.057324 
-2.265838 
-3.216680 
-4.561852 
-2.874221 
-1.141218 
-2.105836 
-0.250087 
-3.769655 
-2.849422 
-2.537655 
-4.073375 
-0.470039 
-1.180384 
-4.684566 
-3.626023 
-0.747663 
-1.785369 
-1.744918 
-1.766054 
-2.497875 
-3.757514 
-4.275516 
-2.452294 
-4.844350 
-2.985979 
-4.123291 
-1.183347 
-3.786491 
-2.365719 
-0.046253 
-3.843814 
-4.631557 
-3.262933 
-3.405666 
-2.505778 
-4.404152 
-0.511502 
-2.755865 
-3.173806 
-3.360924 
-0.293520 
-2.247181 
-3.830963 
-1.473904 
-1.931748 
-2.456986 
-2.221566 
-3.717116 
-4.201904 
-3.987620 
-1.214991 
-2.959417 
-3.263136 
-3.667285 
-2.803767 
-1.249116 
-2.790576 
-3.987114 
-0.035607 
-0.156295 
-4.033367 
-3.879421 
-4.787852 
-2.296301 
-2.285087 
-2.293631 
-1.700453 
-2.796589 
-0.049496 
-4.874259 
-1.157513 
-0.343016 
-2.121440 
-4.988475 
-1.816919 
-4.053188 
-2.445462 
-4.038486 
-2.770304 
-1.647365 
-3.026106 
-3.985295 
-4.606783 
-1.289243 
-2.652581 
-2.410550 
-2.538359 
-0.443156 
-1.397664 
-2.573965 
-0.599451 
-0.431031 
-1.453386 
-0.387303 
-2.727332 
-3.738473 
-2.680934 
-4.427784 
-1.535063 
-2.730430 
-4.302043 
-2.692575 
-3.073446 
-1.423483 
-2.681051 
-4.890366 
-0.476671 
-0.126512 
-3.928852 
-3.246975 
-1.773878 
-1.954958 
-2.232271 
-1.380661 
-3.244201 
-4.884851 
-3.791211 
-0.782559 
-0.328008 
-0.188875 
-3.356525 
-0.927459 
-0.619906 
-4.809911 
-1.314762 
-3.347238 
-3.548384 
-3.995696 
-2.775023 
-0.083447 
-1.726127 
-2.077066 
-2.776022 
-4.799573 
-3.500550 
-0.457073 
-4.689939 
-3.977221 
-0.583585 
-3.618790 
-2.224196 
-2.357463 
0.573748 
4.456467 
-3.738124 
-3.817948 
-4.341318 
-2.529335 
-4.600508 
-4.669326 
-2.718210 
-2.957032 
-0.596785 
-3.338115 
-2.766943 
-1.911547 
-1.685354 
-1.315327 
-0.907243 
-4.460376 
-1.398774 
-2.633370 
-1.537442 
-4.174796 
-2.432943 
-0.037991 
-4.631869 
-2.122881 
-4.015212 
-0.215454 
-0.741671 
-1.239408 
-2.572918 
-1.315418 
-0.695875 
-1.311042 
-0.133366 
-0.037193 
-3.840376 
-4.733874 
-4.706519 
-1.558586 
-2.690907 
-0.303303 
-4.896701 
-0.457850 
-2.214850 
-1.582055 
-1.773177 
-3.122093 
-1.042431 
-3.171951 
-0.755463 
-2.579873 
-2.346747 
-3.188406 
-2.617865 
-1.978617 
-0.311286 
-1.633076 
-2.194071 
-1.052957 
-2.872484 
-4.766989 
-2.368375 
-3.568359 
-1.078030 
-2.501742 
-3.605552 
-4.918406 
-2.235616 
-3.312070 
-1.476992 
-4.926522 
-3.615373 
-1.373694 
-0.384372 
-0.830223 
-2.955749 
-2.157548 
-3.952316 
-3.998180 
-0.329500 
-4.707779 
-1.578053 
-2.676247 
-2.896185 
-4.195918 
-4.654864 
-3.207471 
-0.828994 
-1.848935 
-4.260428 
-3.701478 
-1.615924 
-1.628803 
-2.269837 
-2.693955 
-4.130545 
-0.875389 
-2.612361 
-1.366161 
-4.187459 
-4.089354 
-1.292683 
-2.802832 
-0.463048 
-1.677054 
-3.633056 
-3.418797 
-3.834603 
-2.585372 
-2.416977 
-4.164103 
-2.293151 
-3.995030 
-1.840350 
-0.189336 
-3.190948 
-1.495214 
-3.396807 
-4.019942 
-3.344149 
-2.657235 
-2.721420 
-4.960073 
-4.286038 
-4.991258 
-2.654028 
-3.416583 
-0.866646 
-0.266389 
-4.782744 
-0.054105 
-4.355743 
-1.075427 
-2.856937 
-4.818791 
-2.752481 
-1.489993 
-3.237588 
-1.587084 
-4.075365 
-0.654565 
-0.751186 
-1.368516 
-4.649595 
-2.591536 
-1.557852 
-2.840543 
-4.086751 
-4.954659 
-1.860484 
-2.430900 
-2.611894 
-4.581904 
-2.390973 
-1.897932 
-4.573162 
-0.045001 
-0.314516 
-0.439808 
-0.311391 
-0.097260 
-0.493913 
-4.667134 
-1.172686 
-3.350850 
-4.485925 
-3.925167 
-4.840843 
-2.723513 
-0.512251 
-3.916208 
-3.378078 
-1.263437 
-0.284724 
-3.027673 
-3.854974 
-1.842576 
-0.868216 
-2.941724 
-1.797235 
-2.728700 
-0.372624 
-4.409128 
-2.310605 
-2.763597 
-1.307061 
-1.883766 
-2.808599 
-1.621577 
-2.323574 
-3.119989 
-1.718836 
-2.817487 
-2.787123 
-2.891522 
-1.168338 
-2.273049 
-1.816689 
-1.009181 
-4.996562 
-2.328940 
-4.925389 
-3.374640 
-3.592378 
-0.210113 
-1.402313 
-2.447351 
-2.052689 
-2.270528 
-0.389076 
-3.849923 
-4.999228 
-0.761700 
-3.259052 
-2.309833 
-3.525297 
-4.566113 
-4.193599 
-1.333895 
-1.187689 
-1.517173 
-4.453885 
-2.906526 
-4.334661 
-2.241008 
-0.798048 
-0.502998 
-4.514056 
-2.614738 
-1.512179 
-4.510618 
-4.943678 
-1.437568 
-2.885258 
-3.536056 
-1.647681 
-4.287571 
-0.983407 
-3.700370 
-1.558099 
-1.372483 
-2.550293 
-1.557327 
-2.134183 
-0.809345 
-3.867160 
-0.659479 
-0.375458 
-3.060759 
-1.993375 
-1.563147 
-4.577932 
-1.447259 
-4.469673 
-3.912592 
-3.688267 
-0.267721 
-4.415591 
-3.202324 
-2.882459 
-0.927770 
-2.712942 
-2.826137 
-2.365339 
-0.598200 
-1.362193 
-4.013020 
-4.885771 
-2.345600 
-2.713390 
-1.443870 
-3.718083 
-0.263684 
-3.001197 
-0.852266 
-1.073029 
-1.868357 
-1.511745 
-1.448487 
-4.929116 
-3.505120 
-3.011634 
-4.507048 
-4.952379 
-2.481308 
-3.419640 
-3.640647 
-2.749029 
-2.835231 
-1.842971 
-0.631488 
-3.763001 
-4.555912 
-3.457625 
-1.128340 
-0.154113 
-4.819818 
-0.141360 
-0.039883 
-2.165418 
-2.854750 
-1.483753 
-0.883501 
-3.118433 
-4.484951 
-1.735767 
-4.191462 
-1.353308 
-3.247512 
-0.639949 
-1.282424 
-1.752632 
-3.651583 
-0.789472 
-1.705012 
-1.132891 
-4.209112 
-0.345659 
-3.881920 
-2.044343 
-2.188630 
-4.513408 
-0.807344 
-1.744542 
-2.971033 
-1.935684 
-1.898655 
-2.790850 
-2.077043 
-1.938538 
-4.956268 
-4.931793 
-3.422291 
-0.839770 
-3.050226 
-2.907242 
-2.575537 
-2.241688 
-4.260550 
-0.823049 
-2.881638 
-0.542974 
-2.575681 
-1.533221 
-1.332445 
-4.280694 
-2.666112 
-0.541557 
-4.626352 
-1.548032 
-2.585900 
-1.814982 
-1.061440 
-3.393244 
-3.559524 
-4.032472 
-0.328928 
-0.458179 
-1.823322 
-2.405971 
-2.396717 
-1.779591 
-2.337764 
-0.819008 
-2.619361 
-0.387990 
-3.726250 
-0.194897 
-2.629678 
-2.986800 
-1.017946 
-0.511316 
-3.529773 
-3.593628 
-2.044537 
-4.862218 
-2.874321 
-4.710649 
-0.403775 
-2.500674 
-1.258682 
-2.989676 
-4.315656 
-2.320121 
-1.382920 
-2.875180 
-1.352593 
-1.711848 
-3.333359 
-3.175915 
-4.117819 
-0.730075 
-4.955506 
-1.455583 
-1.549083 
-2.574867 
-1.843573 
0.275333 
2.769764 
4.473252 
3.262133 
3.787711 
4.984568 
1.791906 
2.381339 
2.029106 
1.654124 
0.255660 
1.739755 
2.057900 
2.756333 
2.998437 
0.047575 
2.071989 
0.318558 
1.430495 
4.947168 
1.671151 
3.142343 
3.280527 
4.847066 
2.260162 
4.010602 
4.802572 
3.715745 
0.559685 
2.377439 
0.559318 
0.835018 
0.147204 
0.032570 
4.097151 
3.934915 
0.017138 
0.889057 
1.316253 
2.046243 
2.543182 
1.571913 
3.785999 
4.601082 
4.328246 
1.784435 
4.648657 
1.400235 
2.102993 
1.079152 
1.347404 
3.774143 
4.221495 
4.627931 
3.621210 
1.481657 
3.638533 
3.423782 
0.197402 
4.198218 
0.801221 
0.756720 
0.033237 
0.948425 
0.789289 
4.130388 
4.883340 
0.806427 
0.019445 
1.199592 
2.852671 
2.562627 
2.771505 
1.638669 
2.163708 
2.099751 
3.423104 
1.812366 
3.499986 
0.526097 
2.891518 
4.847389 
4.300241 
2.113013 
4.475320 
2.921450 
3.594670 
3.113853 
1.345232 
3.792071 
2.312071 
2.146453 
4.548791 
2.345308 
3.094878 
0.338080 
1.475695 
2.978218 
1.144508 
1.495141 
4.177811 
3.997178 
4.057768 
1.949316 
0.635848 
1.221476 
4.049067 
4.058952 
3.033842 
2.549052 
4.585049 
0.925359 
2.396442 
3.885289 
3.038372 
1.871762 
1.806739 
1.633042 
4.985615 
3.151971 
0.425113 
2.297686 
0.298425 
4.973904 
4.642993 
3.393303 
0.311984 
1.118689 
1.371521 
1.456492 
2.613830 
0.549332 
0.453670 
1.671597 
2.498648 
1.089517 
2.893074 
1.547714 
0.148469 
0.926915 
4.096766 
4.733519 
1.852275 
1.493209 
3.618808 
4.890647 
3.364971 
0.425547 
1.523688 
3.350586 
3.577518 
1.948801 
0.648271 
3.875943 
1.922705 
0.291265 
2.269247 
2.234689 
1.409954 
3.640768 
3.691181 
4.023784 
4.190100 
4.144851 
0.695381 
1.688748 
0.234368 
3.588455 
3.236462 
0.382838 
4.515370 
2.333229 
0.116356 
1.367645 
3.826437 
3.735163 
1.258292 
2.191408 
4.170710 
2.781981 
0.541994 
2.738229 
4.730782 
1.190265 
1.614172 
1.653487 
1.481530 
3.883419 
3.888176 
2.891484 
2.524187 
2.579357 
1.915268 
1.714287 
1.724208 
2.610649 
3.403034 
1.958576 
1.199104 
1.639496 
2.341413 
0.714474 
3.972724 
2.457769 
2.082119 
2.799162 
1.192933 
3.340411 
4.990570 
0.353643 
1.122392 
0.532564 
3.091872 
0.853174 
1.722829 
4.706045 
2.506661 
3.204359 
3.589463 
1.394837 
1.095843 
1.113650 
3.974195 
3.011111 
2.827936 
0.698402 
0.621760 
1.230970 
2.656978 
1.820863 
2.870466 
4.998392 
2.535337 
1.843191 
2.456161 
4.617457 
4.642353 
3.649094 
2.957869 
4.632923 
4.002737 
4.080261 
0.165487 
2.094609 
4.933434 
1.888316 
1.800654 
2.440096 
0.092675 
0.390117 
3.834933 
1.188518 
1.503767 
2.809128 
4.199629 
4.331703 
3.507529 
4.821388 
0.562674 
1.164508 
1.642252 
3.433140 
1.162899 
4.177589 
0.276330 
3.619061 
3.795047 
4.918683 
2.268154 
1.752915 
4.551606 
1.270891 
0.833176 
4.717092 
3.365501 
0.766610 
1.605408 
0.166155 
3.206706 
1.698083 
0.556272 
2.041639 
2.886601 
2.060039 
4.850767 
2.086230 
1.391742 
3.358296 
1.907618 
1.954416 
4.522804 
3.549870 
0.387555 
0.685704 
2.727460 
0.663886 
4.304764 
1.522506 
0.582569 
1.572918 
3.275421 
0.134175 
2.843810 
4.108597 
4.851267 
1.209311 
4.875207 
1.456675 
1.375466 
3.081914 
3.154758 
1.931738 
0.123553 
1.041359 
3.991777 
4.974320 
3.127589 
0.383519 
3.332616 
0.035207 
2.337935 
2.855420 
3.585078 
2.725490 
3.541124 
1.312537 
3.389376 
2.845888 
2.835043 
3.971945 
4.418807 
1.110465 
4.106120 
2.262616 
0.219062 
3.957386 
3.471927 
0.094269 
0.414062 
4.847394 
3.176183 
3.568820 
1.779131 
3.299736 
4.610179 
0.770908 
3.274056 
2.737768 
1.154427 
1.606672 
2.772975 
3.492362 
4.462093 
1.358053 
1.217852 
3.003217 
2.670590 
4.607228 
0.849105 
0.505633 
3.579173 
0.267912 
1.616098 
2.685293 
2.530528 
1.835159 
1.642680 
1.002456 
1.929429 
2.056741 
0.849849 
0.105612 
0.625561 
2.628980 
3.405348 
0.235740 
3.399888 
1.679404 
2.973508 
4.554315 
3.286076 
0.746483 
3.046677 
2.748169 
2.104535 
4.264529 
0.751386 
4.775125 
3.871758 
1.600491 
0.280758 
2.450931 
1.868403 
1.896856 
0.136224 
4.398932 
3.732015 
1.778903 
0.401387 
0.661444 
3.835645 
1.251236 
0.767055 
4.461206 
3.880216 
4.172403 
4.696946 
2.280104 
0.851807 
2.670453 
1.834419 
4.137883 
3.416936 
4.881096 
1.886051 
0.521471 
4.145625 
2.637437 
0.296596 
3.017382 
4.237928 
0.577354 
0.468313 
1.106331 
2.474210 
0.604537 
0.505262 
1.206225 
2.383440 
0.906649 
1.867669 
1.219085 
2.157885 
2.634724 
0.680291 
1.038101 
1.807127 
0.377236 
3.318205 
2.658934 
3.047690 
0.152623 
1.796817 
1.464626 
0.033719 
3.682868 
1.986097 
4.179345 
1.320305 
2.282693 
2.196727 
0.558233 
2.860048 
2.665040 
1.664564 
0.334258 
3.269577 
2.169827 
1.540483 
0.653017 
3.076476 
3.408152 
1.872102 
0.234360 
1.042876 
2.552393 
1.272461 
2.850004 
2.929629 
4.590665 
0.508938 
0.977319 
4.743289 
2.305755 
2.441945 
4.777008 
0.988623 
4.428042 
3.956353 
2.308928 
1.710735 
1.153080 
2.867161 
4.570783 
3.818120 
4.531726 
4.905041 
2.087697 
1.701552 
1.445524 
2.740714 
4.778028 
4.853676 
4.612816 
0.012388 
0.896552 
2.165209 
1.284849 
3.746555 
0.094839 
0.875514 
4.255493 
1.072158 
0.618803 
1.561248 
3.514103 
0.395811 
2.549871 
2.942145 
4.352164 
4.858799 
4.652880 
0.505243 
2.725960 
4.223663 
4.323363 
2.257686 
4.128704 
1.411060 
3.959238 
0.574227 
4.151774 
3.737266 
0.427903 
3.764590 
3.749653 
1.324455 
0.929800 
0.034502 
0.071010 
1.024639 
0.910016 
4.326504 
2.096797 
1.528819 
0.887752 
0.610900 
1.924629 
3.437623 
3.553045 
1.276793 
3.296422 
3.205925 
1.782037 
1.022382 
2.429588 
1.105400 
3.280068 
1.558292 
2.516460 
2.239306 
2.132519 
1.668234 
0.976571 
2.560422 
0.432825 
4.726224 
3.884877 
1.362625 
4.760727 
3.955887 
2.387263 
0.670742 
3.282391 
4.484060 
2.199561 
4.170142 
0.094960 
4.124190 
2.607765 
3.648005 
0.400984 
0.904186 
1.853930 
2.183020 
1.926568 
4.283518 
3.288420 
0.206636 
0.841810 
0.804880 
2.445941 
2.974329 
2.473115 
3.422513 
0.534751 
2.905940 
3.148737 
4.419628 
4.268564 
2.909464 
3.375515 
1.655828 
3.580206 
1.657905 
1.139887 
0.779767 
0.828047 
1.234847 
4.903957 
3.435812 
4.882852 
0.304941 
4.339998 
1.736781 
2.487962 
1.266566 
1.020299 
0.776382 
1.473202 
1.862109 
1.581262 
3.919143 
4.836438 
4.054377 
2.341656 
0.371189 
1.960317 
0.490393 
4.790817 
1.228881 
3.399857 
3.166331 
2.884709 
1.980063 
4.824237 
4.024596 
2.759831 
0.652284 
0.259443 
2.663789 
4.088096 
0.142295 
2.968730 
3.428094 
1.879076 
0.456691 
4.694660 
2.899376 
1.233073 
1.167861 
4.761485 
2.814336 
0.087004 
4.597923 
1.868713 
2.428660 
4.969112 
3.829030 
2.919054 
4.759929 
0.057911 
1.318911 
2.926260 
2.942619 
3.298974 
2.750497 
1.967215 
1.058805 
3.402781 
2.226658 
3.722593 
2.490877 
2.368953 
1.691323 
0.918970 
4.248030 
2.148014 
0.613630 
2.147406 
3.381088 
1.781492 
1.908891 
1.195423 
1.868496 
1.506814 
3.064136 
4.297156 
1.475926 
1.893165 
2.216210 
1.235855 
1.951076 
3.535120 
4.162116 
4.893695 
1.834095 
1.912613 
1.860911 
2.892900 
0.315394 
4.087569 
1.615493 
2.806270 
1.456522 
3.306816 
3.725241 
0.704552 
0.454830 
4.338871 
2.851958 
3.835918 
1.120363 
4.760849 
0.031341 
2.988859 
1.267663 
3.095477 
2.286016 
2.743589 
4.988642 
4.502225 
3.979444 
1.939718 
3.037346 
3.141560 
1.833414 
4.871440 
0.054173 
3.694324 
2.764340 
0.369567 
2.781893 
4.379833 
3.175837 
4.238415 
2.686649 
1.901078 
4.942968 
3.141479 
1.239949 
2.794926 
1.977396 
2.360312 
2.555775 
2.008737 
0.349171 
3.823438 
0.104214 
2.635187 
1.567027 
0.092856 
2.137412 
0.546471 
2.032574 
0.174758 
3.688031 
3.865988 
0.046199 
3.742204 
2.560312 
2.810539 
4.111771 
0.342205 
2.190372 
2.287607 
4.580620 
4.877021 
4.188685 
4.523588 
3.018499 
0.428634 
2.318514 
4.995896 
2.788946 
4.874289 
2.004633 
3.138117 
3.697727 
2.108847 
0.773304 
0.264754 
2.201704 
2.910716 
0.811225 
4.234278 
3.085474 
4.499256 
3.100266 
3.131673 
3.241460 
0.660578 
0.942212 
2.353230 
1.002782 
3.132584 
4.640837 
0.583403 
3.009605 
3.829522 
0.106991 
1.028105 
4.258156 
2.425505 
1.024000 
2.047102 
2.299794 
3.028634 
0.185219 
0.997521 
0.137481 
0.958523 
1.262275 
2.339185 
3.869239 
2.073500 
1.573462 
1.954713 
1.572755 
4.673728 
0.086386 
4.814215 
0.334306 
1.028599 
2.167445 
1.337088 
4.161183 
1.808282 
1.920491 
2.170788 
0.637805 
2.027482 
3.198893 
4.895961 
4.452987 
4.222893 
1.943064 
1.752781 
2.251527 
2.128283 
2.750302 
2.389008 
3.086806 
4.012577 
4.728192 
1.956044 
1.086077 
1.301655 
3.910757 
2.658832 
0.975383 
3.997144 
2.473047 
1.309689 
0.025742 
4.640492 
2.646777 
4.186925 
1.448774 
4.567267 
1.357713 
2.086580 
1.594750 
4.556606 
1.982541 
1.047737 
3.779499 
3.925605 
2.800518 
1.031026 
1.053887 
0.550820 
3.420034 
4.140693 
4.563397 
3.148226 
1.096738 
0.649474 
4.449881 
0.007495 
3.308306 
0.425264 
4.004639 
0.781353 
1.734953 
4.030381 
0.421845 
4.381730 
3.217306 
1.870620 
3.948997 
4.575019 
3.957199 
0.543747 
4.131625 
0.939740 
1.591484 
2.911124 
4.865345 
4.392002 
3.942150 
0.919232 
4.942822 
2.362184 
0.059925 
4.506219 
0.510410 
1.156663 
0.155693 
4.960291 
1.164158 
3.463999 
0.385556 
0.168797 
4.245352 
2.120508 
4.199178 
4.667197 
1.502238 
2.416484 
1.537816 
0.451235 
1.991503 
0.495015 
0.994982 
1.123129 
1.434755 
2.586466 
4.034253 
1.300099 
1.978468 
2.976403 
2.219332 
1.921290 
0.338587 
2.279257 
1.427509 
0.848998 
3.435920 
1.583202 
0.809289 
4.600078 
0.047201 
1.194845 
4.768875 
4.292553 
3.315353 
3.968053 
3.959750 
4.817591 
1.384536 
0.497567 
0.268827 
3.376040 
0.992582 
1.263809 
4.499168 
2.427337 
3.850275 
3.533422 
3.727437 
0.828743 
1.509825 
0.946768 
2.750033 
1.848413 
3.226025 
4.177542 
2.697410 
1.661944 
0.760744 
3.506699 
1.262022 
0.807945 
4.701544 
1.030897 
0.100498 
3.016897 
4.998949 
4.060249 
2.834488 
1.383486 
4.557815 
3.103315 
4.759525 
0.550397 
4.367124 
4.258694 
2.977734 
3.217399 
2.792115 
1.705171 
4.046143 
4.301940 
2.651939 
1.796175 
1.150353 
0.877963 
0.973717 
3.847763 
2.539907 
1.734461 
2.354462 
3.801930 
2.542406 
2.056006 
4.832826 
2.642904 
0.072903 
4.831776 
1.703153 
2.907392 
1.215261 
1.260968 
1.010707 
0.974786 
1.811365 
0.377831 
0.233480 
4.789099 
3.595230 
3.025595 
1.494270 
2.641373 
2.327535 
4.146209 
4.437548 
3.477888 
0.024172 
0.411264 
2.325650 
2.564080 
2.145725 
4.680113 
1.366009 
4.688131 
1.736119 
1.198836 
2.331035 
1.809022 
1.030611 
4.034188 
4.716414 
2.245872 
0.295156 
0.727121 
3.220658 
2.106522 
1.104952 
3.454138 
1.895621 
4.700182 
1.479733 
3.389891 
2.341555 
3.807268 
2.536100 
1.779102 
2.285156 
2.560272 
2.190367 
4.610806 
0.124352 
4.336092 
4.290919 
1.490361 
4.024223 
1.027038 
2.689197 
1.355258 
2.836060 
3.719808 
0.389446 
2.552474 
0.965680 
0.684603 
3.279594 
4.186338 
2.791125 
4.384546 
2.640477 
4.686746 
4.084728 
4.120210 
3.076637 
1.426283 
2.927478 
0.612737 
3.205385 
0.212634 
3.173010 
0.395752 
4.823441 
3.297362 
4.731844 
4.114360 
4.787723 
3.756068 
0.141398 
2.476920 
0.111326 
2.977458 
1.196728 
0.500772 
0.529931 
2.162408 
1.185375 
3.809526 
1.348746 
3.976500 
3.194072 
3.989223 
3.663245 
2.278801 
3.109433 
1.739882 
3.705084 
1.036911 
2.352619 
1.910470 
1.249546 
0.525629 
2.306222 
1.072987 
3.822990 
2.038066 
0.187347 
3.610713 
0.794134 
0.328745 
1.087633 
0.905459 
3.306202 
2.284361 
1.406232 
3.836133 
4.446768 
2.591606 
2.645660 
0.795515 
1.568106 
0.839732 
4.784738 
0.231351 
3.118533 
2.894171 
1.971233 
1.823617 
3.931082 
4.323852 
3.734087 
0.180627 
4.849481 
1.040308 
1.253614 
3.672471 
3.078375 
1.440961 
2.283184 
3.872509 
1.769706 
3.370818 
4.777968 
0.075908 
0.655178 
1.184199 
3.912041 
0.101947 
3.775806 
1.557701 
0.897462 
0.343912 
2.397433 
0.682199 
0.575262 
0.515966 
3.576370 
2.546495 
2.339583 
2.507451 
1.870347 
1.073670 
2.688079 
1.719827 
2.113978 
3.941693 
0.392298 
0.192353 
0.382654 
2.675483 
4.064861 
2.152360 
1.046300 
3.842829 
2.228267 
1.701478 
0.027029 
1.140309 
1.803425 
3.802835 
2.698010 
2.700887 
4.146746 
0.095443 
3.383086 
4.722008 
0.611410 
1.959456 
2.268503 
2.950993 
4.466907 
4.138850 
4.024662 
2.154985 
0.858677 
1.138641 
1.096678 
1.250975 
1.330993 
1.479332 
3.926458 
0.395855 
3.631692 
4.972759 
4.238684 
0.859959 
1.674237 
4.265713 
2.000268 
3.477663 
3.068547 
4.698278 
1.178549 
2.215293 
4.793722 
4.561635 
1.937302 
0.405132 
1.521091 
4.205805 
3.356124 
0.987998 
3.344655 
2.380787 
3.142983 
4.203332 
3.519428 
4.239662 
0.454308 
4.850420 
0.718994 
4.380766 
0.246276 
4.350686 
4.353524 
4.484960 
0.210645 
1.027761 
3.750672 
2.210914 
4.505424 
1.819220 
1.909193 
0.683973 
4.034513 
1.702915 
0.245609 
0.971815 
2.108047 
1.766700 
0.177620 
0.464171 
2.754697 
3.522275 
2.844958 
0.897681 
2.725608 
1.364385 
0.137342 
3.179915 
1.214806 
0.856336 
2.560681 
1.461081 
0.207022 
1.914206 
0.946041 
0.417667 
2.941967 
4.696713 
2.628581 
2.447391 
1.515933 
4.537774 
3.131364 
0.550447 
1.240688 
3.376973 
1.522262 
3.348735 
0.143672 
1.699883 
3.812906 
2.898370 
0.222158 
1.657863 
3.796050 
2.947766 
3.022249 
3.933392 
1.127681 
4.237054 
4.789728 
3.688363 
0.698136 
4.996750 
0.602568 
1.644177 
0.414417 
3.544535 
1.340890 
3.042999 
0.991926 
2.856823 
2.580772 
4.123291 
3.407270 
3.821461 
2.500263 
4.929532 
2.170195 
2.643936 
1.629415 
0.983101 
0.542306 
1.851573 
2.640965 
4.338356 
4.799338 
0.663213 
3.271748 
0.927019 
4.900267 
3.061477 
4.615382 
0.598403 
3.058227 
0.217950 
2.242579 
3.472644 
3.762486 
3.583470 
1.515643 
4.754412 
1.440293 
4.096415 
3.877703 
4.847563 
2.917875 
1.377966 
4.777095 
0.088071 
4.021903 
1.406510 
1.071172 
4.564208 
3.258083 
3.712136 
3.902564 
3.057421 
4.375349 
2.174312 
3.984440 
4.275617 
0.235789 
3.599823 
4.874019 
3.294015 
3.817773 
2.116599 
1.766659 
2.590259 
0.710068 
3.282302 
2.334671 
2.140361 
2.378717 
1.212373 
1.987924 
0.296592 
2.590340 
1.765020 
0.384663 
1.612242 
3.171530 
1.455834 
1.176450 
1.429613 
0.167970 
0.079014 
4.487033 
4.543320 
2.253326 
3.471474 
3.818936 
2.489115 
2.071296 
3.692955 
0.783130 
0.889069 
0.809554 
2.549790 
3.469327 
1.509622 
0.832092 
0.803998 
3.649983 
3.210809 
2.016371 
0.637907 
3.507401 
4.606711 
2.402927 
3.892063 
1.218954 
0.574457 
0.347897 
2.395404 
2.004070 
0.515868 
2.474418 
1.491103 
0.059187 
4.727745 
4.962577 
3.878123 
2.216860 
2.033873 
2.571078 
2.999990 
2.922941 
3.380632 
0.549780 
1.392269 
4.890254 
1.381872 
2.196267 
3.540237 
4.592681 
4.212638 
4.178144 
3.100082 
3.819350 
1.581071 
1.992145 
0.038303 
2.155529 
2.340042 
2.433707 
4.159598 
2.855910 
4.908126 
0.650701 
2.915098 
4.635871 
0.613278 
1.793221 
1.852731 
2.647151 
4.364299 
4.852721 
0.570092 
2.744931 
0.402501 
1.962361 
2.635185 
1.784374 
4.158628 
1.175421 
1.377055 
3.371265 
0.353566 
4.477137 
2.190615 
1.934637 
1.469281 
2.228919 
4.090166 
3.809324 
4.662626 
3.249764 
1.665234 
4.570752 
3.900465 
4.580332 
4.206623 
4.513743 
1.373553 
1.059354 
2.160894 
0.737852 
0.912075 
2.730986 
3.482783 
1.314576 
4.693347 
1.117968 
3.098950 
3.851974 
2.293389 
4.476005 
2.223239 
2.646955 
3.953142 
4.413855 
4.581592 
0.422423 
1.642773 
3.671758 
4.231747 
1.305400 
1.921522 
0.896981 
0.876152 
0.821987 
0.477313 
0.082775 
0.335730 
1.850866 
1.142128 
2.496624 
2.588718 
2.054203 
0.227609 
1.071501 
3.368779 
4.920956 
2.189469 
1.467730 
3.772929 
4.482859 
0.943735 
0.996169 
2.129813 
4.896876 
0.410024 
1.711405 
0.319299 
2.052797 
0.383163 
4.551045 
3.358197 
2.304685 
0.448027 
4.234349 
3.126671 
0.925340 
4.317123 
3.462401 
2.776206 
0.459252 
0.959024 
0.364924 
2.513455 
1.186634 
1.436425 
0.882235 
1.107589 
3.625894 
2.349964 
4.880518 
3.108753 
3.293699 
0.876688 
0.238566 
3.190575 
1.286711 
1.949971 
3.509873 
3.339509 
2.333135 
3.060919 
1.697705 
4.637819 
3.508946 
0.932054 
2.764490 
4.434285 
0.249178 
1.226891 
2.210491 
0.708430 
2.185916 
2.575414 
3.221885 
3.372550 
4.011839 
4.104119 
4.480139 
2.637733 
1.454083 
4.360657 
0.746486 
4.747782 
0.237345 
0.985052 
2.938356 
1.524056 
2.935024 
1.448230 
4.863564 
0.268158 
4.509149 
1.561270 
4.905977 
3.018094 
2.493324 
2.670467 
2.452380 
2.742502 
3.897359 
4.662870 
3.450931 
1.083275 
2.238285 
1.672816 
4.455824 
1.250124 
0.776935 
3.935963 
3.887857 
2.231019 
3.296620 
4.634343 
1.978801 
3.533965 
0.619395 
4.917157 
0.058021 
3.554419 
1.365387 
4.921586 
3.822577 
0.874536 
1.482856 
3.728554 
3.892630 
3.976180 
1.399021 
1.345010 
1.718681 
0.296380 
1.007880 
0.169613 
1.379655 
3.246165 
1.842429 
0.835479 
4.496289 
2.619364 
4.771442 
3.384146 
4.850383 
3.068062 
3.018490 
1.829184 
1.602027 
3.637885 
1.746341 
1.660048 
2.192304 
3.111728 
1.581634 
1.014881 
3.986264 
3.064489 
4.743435 
2.878895 
2.040669 
1.142456 
4.223905 
3.759351 
1.438837 
0.231785 
3.928963 
2.818491 
3.477950 
0.771392 
3.653971 
2.974239 
3.390757 
3.425413 
1.358386 
3.241139 
1.493475 
4.376876 
0.070323 
3.095502 
3.014760 
1.816664 
4.755550 
0.207064 
4.928392 
1.337184 
1.221945 
3.914656 
4.401674 
0.965380 
1.793551 
1.442343 
2.107837 
1.017455 
0.201693 
3.546673 
1.249240 
4.130657 
1.365165 
4.727190 
4.902049 
0.019135 
2.701430 
3.292805 
3.444548 
4.059816 
1.533945 
4.938023 
3.436692 
1.604268 
3.033525 
1.451452 
3.420932 
2.789075 
1.658517 
3.349324 
4.126260 
2.880462 
2.263981 
3.527933 
3.845842 
4.057532 
4.970276 
0.953679 
0.074987 
0.171970 
4.500352 
1.324227 
4.302626 
0.865517 
1.051418 
4.204675 
0.884652 
3.752848 
2.497480 
4.329200 
2.812664 
4.031425 
4.267223 
1.249355 
0.635693 
2.300748 
2.700807 
4.056625 
0.089824 
4.359324 
2.405949 
4.216084 
2.239785 
4.669930 
2.744017 
1.085627 
3.727461 
2.714293 
2.039306 
3.802449 
2.886262 
1.539658 
0.126676 
2.188889 
2.405174 
1.178093 
1.393564 
3.289826 
4.930941 
3.891044 
2.619027 
2.753605 
2.932469 
1.876250 
4.002959 
3.649185 
4.186998 
1.693767 
2.614787 
4.276822 
1.053090 
0.020736 
3.492905 
3.292876 
4.690666 
1.236921 
4.378503 
3.418127 
3.951214 
1.417809 
2.220576 
1.837476 
2.957466 
2.347251 
4.026365 
0.362640 
3.525345 
0.419929 
3.652467 
3.456286 
4.310973 
1.271493 
1.199891 
2.233442 
3.157743 
0.192850 
0.791604 
2.344741 
1.886617 
3.406391 
1.621563 
2.939707 
3.427126 
0.114468 
1.232583 
3.117792 
1.351389 
0.611085 
1.535919 
0.302603 
2.028894 
3.756495 
2.140080 
4.986361 
1.103746 
1.166445 
0.349001 
4.629090 
1.586374 
4.001468 
3.085376 
0.897346 
0.272961 
4.285267 
3.130788 
3.430705 
4.478117 
3.922392 
0.775446 
1.364734 
2.328782 
2.397009 
4.304441 
0.755909 
2.511476 
0.537024 
3.873701 
3.862865 
1.148110 
0.409620 
4.165469 
3.177004 
4.166115 
1.305548 
3.163364 
0.269861 
2.471993 
3.512365 
4.898951 
4.058367 
2.513833 
2.984328 
4.955713 
2.786793 
2.269595 
3.086501 
1.217498 
1.747712 
2.008893 
1.992944 
3.112446 
4.337676 
4.389952 
2.416888 
0.093584 
1.901429 
2.953912 
3.967285 
0.764294 
4.102022 
4.376905 
4.929762 
2.279026 
3.543020 
1.235311 
0.442390 
3.812881 
3.707304 
3.954755 
3.711832 
2.765670 
1.468588 
1.696160 
2.721383 
4.255381 
3.965754 
0.807884 
0.472879 
0.713466 
2.816777 
2.465822 
3.825913 
2.154453 
1.855775 
1.242801 
2.248038 
3.757203 
4.196713 
1.215323 
4.521497 
3.298736 
0.592228 
4.451260 
0.577762 
4.135249 
0.686570 
1.020152 
2.948130 
4.393874 
4.974907 
1.659962 
2.159544 
1.443495 
3.356122 
4.880928 
0.698876 
2.321876 
0.688812 
1.171755 
3.035342 
3.505590 
3.637577 
1.861255 
0.660043 
0.493352 
3.104055 
2.908081 
4.250556 
2.300769 
4.123404 
3.772053 
0.599504 
4.715632 
3.223312 
1.177266 
3.850881 
3.909883 
2.197418 
1.799011 
3.303757 
2.172325 
3.458972 
0.463301 
3.615820 
1.815094 
0.344229 
4.314695 
4.136969 
1.033041 
0.486450 
2.172311 
4.538631 
4.124028 
4.033566 
0.198674 
4.617380 
2.137621 
3.106754 
3.867935 
4.438390 
2.230158 
2.639988 
0.037895 
1.945790 
0.863300 
1.215161 
0.796671 
4.773183 
3.412579 
2.595681 
3.076940 
0.584904 
1.054653 
3.540241 
4.200724 
2.869747 
3.884470 
3.515419 
2.006716 
4.917511 
4.001869 
4.179028 
4.456141 
3.125897 
3.212593 
4.654815 
2.743277 
0.350215 
2.761569 
1.611212 
4.788605 
4.991727 
4.251200 
4.826499 
1.937517 
0.114500 
1.041660 
2.734188 
4.887683 
4.454239 
0.329869 
2.964622 
0.039142 
1.384522 
1.504863 
4.239866 
4.254269 
0.389333 
2.755285 
1.260985 
0.306843 
1.757154 
0.440012 
4.762984 
4.883051 
3.652605 
4.417800 
2.626328 
4.002820 
2.179369 
4.237540 
3.791425 
2.171097 
3.488740 
3.617924 
4.108614 
3.603240 
4.659585 
1.842801 
3.490923 
4.113823 
2.172670 
1.455545 
4.152966 
3.557192 
2.960408 
3.392832 
2.811460 
3.349741 
1.148117 
4.072445 
3.656584 
2.905271 
4.512457 
3.419569 
2.788322 
3.165062 
2.837368 
0.414651 
2.167881 
0.016738 
4.652191 
0.959306 
2.187834 
3.140931 
4.577231 
1.296448 
1.744171 
4.236815 
3.139249 
0.235094 
3.350639 
0.311920 
1.690639 
2.503605 
3.869111 
4.651047 
0.896437 
1.680572 
3.000788 
2.044554 
0.753016 
1.657372 
4.949825 
0.265473 
0.076941 
2.738147 
3.430535 
2.914309 
3.152798 
0.598416 
2.931047 
2.804989 
1.557723 
0.118881 
0.945920 
1.134953 
1.415330 
2.690091 
0.371769 
4.554579 
2.925185 
3.722408 
4.866499 
4.615824 
1.226013 
3.735610 
4.266871 
2.122450 
0.416181 
2.267659 
4.167003 
1.169198 
3.925031 
4.116828 
1.434671 
4.001972 
1.854975 
4.865206 
1.916282 
0.007773 
0.463622 
4.847329 
2.812762 
2.021344 
4.966210 
3.758683 
3.156298 
1.381540 
1.448774 
3.528067 
0.936119 
4.373960 
2.250474 
0.802617 
3.989784 
3.476487 
4.538227 
3.256655 
0.598937 
4.954409 
0.524314 
4.765940 
1.123606 
4.449346 
3.882768 
2.558277 
3.451318 
0.737743 
2.423483 
0.367600 
0.745516 
2.897105 
0.214928 
3.558278 
4.908449 
0.181138 
2.316961 
3.064747 
1.562678 
3.765735 
1.592813 
2.498796 
3.139694 
3.843288 
3.301414 
2.129478 
2.319775 
2.839641 
0.386132 
2.918712 
2.794050 
0.910447 
2.684652 
3.917656 
0.359793 
1.567420 
1.475934 
3.811111 
2.305162 
3.899417 
4.178711 
3.050678 
1.786521 
4.393639 
1.608957 
1.694970 
4.574778 
3.925918 
4.759717 
1.137455 
2.691653 
1.352531 
3.636252 
0.831346 
0.195818 
1.937666 
2.960824 
2.515594 
4.777307 
3.346956 
0.434305 
2.571357 
4.257403 
3.118957 
1.489014 
4.617196 
4.686377 
2.964947 
3.428307 
1.991539 
1.864364 
2.607018 
0.042217 
3.650885 
2.000656 
1.651174 
0.345856 
1.575434 
0.577092 
0.105573 
2.712889 
3.268744 
1.458103 
1.349141 
4.100091 
1.653922 
3.286807 
2.060915 
4.169515 
3.064114 
0.407871 
4.603820 
0.635471 
4.665274 
2.722777 
2.124485 
4.282469 
2.409154 
0.089432 
2.710776 
4.400692 
1.953797 
0.317793 
4.442910 
0.604682 
2.318450 
1.094084 
0.950537 
3.893883 
1.671175 
1.056110 
1.606773 
4.939919 
2.514214 
2.955914 
4.040010 
4.168135 
1.242721 
1.100925 
3.337650 
4.306835 
1.508796 
2.941471 
4.942307 
1.174069 
0.664248 
2.066792 
0.456539 
3.073402 
2.156224 
3.167315 
2.474094 
4.110021 
3.485108 
1.917004 
4.714703 
0.803558 
3.011088 
0.665240 
4.697441 
4.682263 
1.721350 
1.304214 
4.622183 
4.235564 
4.260128 
3.662193 
3.403699 
0.502849 
4.763119 
1.741350 
4.809684 
1.271914 
4.682820 
4.751990 
2.445984 
0.347068 
1.818782 
2.902522 
3.420470 
3.975006 
1.069837 
0.894564 
3.085027 
4.554945 
2.811568 
2.799729 
0.358502 
0.822656 
3.464969 
0.055944 
0.504919 
0.186319 
1.360157 
0.127102 
4.421883 
0.620285 
3.789296 
2.825582 
1.123134 
3.552414 
4.566932 
0.932818 
4.824328 
4.249753 
0.684808 
2.270312 
4.596821 
2.503590 
0.172835 
3.017291 
1.478596 
1.242672 
3.911855 
4.563623 
0.797616 
1.723424 
2.363352 
1.156119 
2.546080 
0.828321 
1.212062 
3.050999 
1.014640 
2.572220 
3.178101 
0.436523 
3.192505 
1.967396 
3.262105 
4.315639 
0.519810 
2.829038 
0.248457 
0.344138 
2.078790 
0.933265 
2.614450 
1.675611 
3.436855 
2.787285 
4.692902 
4.915452 
4.029956 
3.604757 
4.479074 
4.827573 
0.328181 
1.842426 
0.983692 
2.874260 
2.670746 
2.195754 
0.925259 
3.685386 
4.767974 
4.103360 
4.121910 
2.960479 
1.070756 
2.384015 
2.276118 
1.590566 
0.213053 
2.524575 
1.934705 
2.291843 
3.457840 
4.549155 
3.967454 
1.894696 
2.336440 
3.660356 
1.810147 
1.366396 
2.265113 
1.289221 
1.193969 
2.593294 
3.131647 
2.177661 
0.467555 
0.802393 
4.373415 
1.392814 
4.487780 
4.141389 
0.496174 
3.609689 
2.101869 
1.566930 
0.993705 
4.377987 
3.157496 
1.206758 
1.902562 
0.092201 
3.498601 
0.360403 
4.641356 
2.466055 
2.255099 
1.977795 
1.126410 
4.065246 
3.344192 
3.391523 
0.354467 
4.538161 
0.984817 
3.486114 
1.715822 
1.452372 
4.288507 
1.089238 
2.845185 
3.776287 
0.230627 
3.341359 
2.385976 
2.332496 
4.908289 
3.379681 
1.710483 
3.065785 
4.586439 
3.613045 
3.157986 
3.085040 
3.973448 
2.799341 
0.551095 
1.228546 
4.777136 
1.677505 
0.293792 
3.121328 
0.069028 
0.648259 
2.659490 
1.053845 
4.134372 
4.375312 
2.506217 
3.422879 
0.464550 
0.351402 
2.199166 
0.695177 
3.692762 
4.585142 
3.027673 
3.601051 
2.964823 
4.738156 
1.666836 
2.551262 
3.351202 
4.824822 
0.636302 
2.324649 
2.624163 
1.187397 
3.553195 
2.401300 
2.864902 
3.846987 
0.522628 
2.933930 
4.495246 
3.182118 
3.987776 
3.629618 
2.557430 
1.493993 
2.052497 
3.021980 
1.845395 
4.251663 
3.717157 
0.538157 
3.836805 
1.744831 
4.139208 
1.801628 
1.482987 
0.806045 
4.352890 
4.834188 
0.630867 
4.989193 
2.158838 
3.255030 
1.176590 
0.712033 
0.656330 
4.041492 
4.559021 
1.178959 
1.975423 
4.054266 
4.361076 
0.963199 
2.683885 
1.918506 
2.457192 
4.736382 
4.940486 
4.302587 
3.988045 
3.657644 
4.840744 
2.824850 
0.402474 
3.979953 
4.626479 
1.885461 
4.785997 
3.979369 
1.719650 
0.416864 
3.968562 
3.878487 
3.671894 
0.145152 
4.590520 
4.328225 
4.186645 
4.149541 
0.507183 
1.162068 
3.203808 
4.868259 
2.125267 
0.887693 
1.786766 
4.582458 
0.624075 
1.727252 
3.885045 
4.612120 
0.384895 
3.725790 
2.436970 
0.787369 
2.705742 
2.063448 
2.672830 
2.491739 
1.042818 
4.392480 
2.908604 
0.011380 
3.270967 
1.580498 
0.156533 
2.861488 
0.908723 
4.343177 
2.011029 
1.415906 
0.505245 
0.214837 
1.284165 
2.630512 
1.102530 
3.070931 
2.212970 
1.726604 
4.798182 
1.098015 
1.338724 
0.183078 
4.823804 
3.775694 
0.970447 
2.529547 
0.839142 
3.643277 
0.021286 
1.881960 
3.035757 
2.929890 
1.893340 
1.306725 
4.510387 
2.049873 
4.168213 
0.419110 
1.393050 
1.179242 
1.835016 
1.898295 
1.394079 
3.119181 
4.528807 
2.496609 
1.190112 
1.741777 
4.223214 
0.988294 
2.839792 
0.561937 
1.171371 
2.663596 
4.337631 
2.141818 
0.193143 
0.176774 
0.785095 
0.214429 
2.058734 
3.820852 
3.144319 
3.952074 
0.127577 
2.654706 
1.001946 
4.295790 
3.073816 
2.394996 
0.475032 
4.908832 
4.293292 
1.869112 
3.028013 
3.822098 
4.365721 
4.218124 
0.563875 
3.588934 
0.206418 
3.403666 
4.150871 
1.377790 
1.067263 
3.488503 
3.519608 
1.260405 
3.665276 
4.304703 
1.474834 
0.724010 
3.125556 
4.619153 
4.676084 
3.253133 
2.273859 
0.678030 
2.548923 
0.347675 
3.073026 
3.023955 
0.256507 
2.366318 
4.893066 
3.284520 
1.188416 
4.258787 
2.502644 
1.752291 
2.847721 
2.709062 
0.155957 
1.998593 
4.086852 
1.223220 
0.487095 
2.606460 
2.483625 
4.152371 
1.911163 
3.958459 
4.876381 
0.036718 
3.577612 
4.552465 
3.289851 
0.851471 
0.230495 
0.838774 
1.199146 
3.303521 
3.862729 
1.455652 
0.669839 
3.755796 
4.740172 
1.858255 
3.014583 
2.242816 
3.610545 
0.862305 
4.951878 
3.766503 
2.860897 
4.038729 
4.989722 
3.347993 
1.645189 
2.473347 
2.500364 
3.556352 
1.431807 
2.376746 
3.593070 
0.009419 
1.929211 
1.882922 
0.860889 
2.159706 
2.721696 
2.060035 
0.463227 
1.584425 
3.515687 
1.133066 
0.340221 
3.255859 
2.991321 
3.354804 
0.498675 
1.601866 
4.217108 
0.450553 
0.368369 
2.078006 
4.489282 
0.358091 
0.425998 
1.134471 
2.831439 
2.926362 
4.690823 
4.263246 
0.303108 
3.283893 
4.272664 
2.232319 
0.166815 
0.133553 
4.392024 
2.888510 
2.193588 
4.855251 
4.472936 
0.709275 
0.988317 
4.813156 
3.965134 
3.979638 
3.167960 
4.463809 
0.581504 
2.385068 
4.914361 
0.949872 
4.463074 
4.403644 
1.307964 
4.889072 
0.538115 
4.139402 
2.815434 
-0.228938 
-3.402648 
-3.118542 
-3.512831 
-2.675312 
-0.350861 
-3.679646 
-2.808866 
-4.742885 
-1.568156 
-4.598136 
-1.041092 
-0.711729 
-0.586453 
-0.854248 
-4.676863 
-4.566091 
-4.022208 
-4.140672 
-0.147594 
-1.407276 
-4.055034 
-1.097467 
-0.870350 
-3.458677 
-2.405430 
-0.759421 
-3.996792 
-1.544833 
-3.574855 
-4.225730 
-4.947481 
-1.693397 
-2.738561 
-2.622793 
-2.044258 
-1.418206 
-0.431659 
-1.787143 
-2.986362 
-0.434113 
-1.385279 
-4.027454 
-1.145841 
-1.971732 
-4.881702 
-0.822704 
-1.537823 
-3.903910 
-4.963377 
-1.685417 
-0.311185 
-4.018410 
-2.782883 
-1.181535 
-2.477088 
-0.188314 
-1.940956 
-1.473880 
-1.733147 
-0.515812 
-0.699610 
-1.680628 
-2.209209 
-3.438170 
-4.303421 
-4.253467 
-4.856376 
-4.735080 
-1.040609 
-2.842739 
-0.169192 
-2.425888 
-1.870193 
-1.315034 
-4.397620 
-1.751895 
-2.137738 
-0.935443 
-0.655804 
-2.101115 
-2.620860 
-0.966989 
-1.119525 
-0.403743 
-2.148525 
-3.596613 
-0.592057 
-4.089480 
-0.070493 
-2.325203 
-4.605292 
-0.770102 
-4.005831 
-1.814501 
-4.208272 
-3.309252 
-1.067968 
-4.064649 
-3.044331 
-2.108577 
-1.907387 
-3.213524 
-4.534466 
-3.777580 
-4.528557 
-3.932086 
-0.529475 
-1.666296 
-4.867529 
-1.185279 
-3.767411 
-2.488389 
-2.152269 
-4.886936 
-2.892132 
-4.300793 
-3.483548 
-3.484188 
-3.390274 
-3.554041 
-0.809392 
-2.995566 
-4.324143 
-4.815223 
-4.810067 
-3.532415 
-3.124475 
-0.878035 
-2.597064 
-1.168806 
-2.986613 
-4.504452 
-4.382330 
-2.521079 
-3.282032 
-3.910887 
-1.453165 
-3.811507 
-0.577183 
-1.320693 
-4.996786 
-4.344594 
-3.809082 
-2.149055 
-4.231529 
-1.701213 
-1.449848 
-2.715077 
-0.185402 
-4.840121 
-1.269119 
-0.994793 
-2.835688 
-0.593262 
-0.810016 
-2.645755 
-4.125677 
-3.934490 
-3.523791 
-1.722741 
-0.103296 
-1.510404 
-1.227193 
-4.485626 
-4.031482 
-4.509224 
-3.396513 
-0.484647 
-3.320732 
-3.973696 
-1.805341 
-3.317518 
-3.318290 
-0.614422 
-0.466572 
-2.549819 
-2.315636 
-1.916420 
-0.264896 
-2.501037 
-1.756541 
-1.534015 
-3.495831 
-4.592229 
-2.127276 
-4.305847 
-2.237984 
-1.252953 
-3.240337 
-0.761775 
-2.975694 
-3.343633 
-2.272178 
-4.202887 
-2.829260 
-1.303661 
-3.712112 
-1.225773 
-1.788308 
-2.032843 
-0.199469 
-3.593648 
-0.350361 
-3.517759 
-4.208070 
-0.816933 
-1.067578 
-1.523706 
-2.733353 
-1.332475 
-4.024744 
-4.489894 
-2.866490 
-2.520574 
-4.082123 
-4.993766 
-1.826421 
-1.320107 
-1.246719 
-0.066758 
-2.081882 
-4.222414 
-3.410391 
-4.354060 
-3.425301 
-1.239650 
-0.657721 
-2.137413 
-2.465424 
-2.446028 
-4.170256 
-2.664893 
-1.039676 
-4.520617 
-1.182652 
-0.247747 
-0.337550 
-2.250231 
-1.771453 
-3.070903 
-3.582705 
-0.796196 
-2.560797 
-1.449195 
-3.316770 
-1.642921 
-1.442961 
-0.143191 
-2.963028 
-2.689681 
-0.209948 
-0.044910 
-1.912094 
-3.620339 
-4.398970 
-0.337395 
-4.859990 
-0.056691 
-2.474808 
-2.325413 
-2.502719 
-1.645063 
-4.990306 
-3.542395 
-1.165680 
-1.172959 
-3.790142 
-1.503230 
-3.423189 
-0.561595 
-4.574133 
-2.005894 
-1.357791 
-2.134931 
-3.455089 
-4.674562 
-3.777851 
-4.898050 
-4.817752 
-1.740879 
-2.587730 
-0.027701 
-1.785789 
-4.499825 
-3.648040 
-1.184759 
-4.837219 
-3.508030 
-1.241449 
-2.312027 
-0.833443 
-3.744168 
-3.957090 
-0.823750 
-2.286563 
-0.122770 
-1.996708 
-1.076705 
-1.626000 
-0.419897 
-1.638300 
-1.200133 
-2.425792 
-2.996092 
-3.335064 
-0.880881 
-2.670653 
-2.112915 
-0.778931 
-2.488406 
-3.853794 
-3.366661 
-2.516107 
-0.639583 
-2.866485 
-1.164147 
-1.824342 
-2.703705 
-4.672176 
-3.065791 
-0.015732 
-0.505620 
-1.809959 
-3.972822 
-1.329369 
-4.096522 
-4.095592 
-3.326078 
-0.173228 
-0.721592 
-3.745975 
-1.811528 
-1.921726 
-1.171767 
-4.807621 
-0.256789 
-2.052647 
-2.478274 
-2.369704 
-2.831578 
-4.966680 
-1.223498 
-1.198239 
-2.482786 
-1.863081 
-4.064724 
-3.646933 
-3.687423 
-1.768429 
-3.319110 
-1.753213 
-1.784161 
-3.824729 
-3.563172 
-0.756983 
-0.154099 
-2.659695 
4.852575 
3.480177 
2.832923 
0.574168 
2.226151 
4.644451 
2.495893 
3.397918 
4.452071 
2.752683 
0.450566 
1.930345 
0.122387 
3.282144 
1.897024 
1.345885 
4.480382 
4.379811 
3.208966 
3.545107 
3.026743 
1.896388 
0.313536 
1.345853 
3.649602 
2.097697 
0.170583 
2.212774 
2.854680 
0.324681 
4.872468 
2.707255 
3.804858 
2.705391 
3.281423 
1.031009 
2.349842 
0.777316 
4.428927 
1.801913 
3.529998 
4.879493 
3.732258 
3.652385 
3.161637 
0.629282 
4.998270 
2.642019 
0.009093 
3.207236 
1.187126 
3.035837 
0.103624 
1.500662 
4.381690 
3.753226 
3.598359 
4.552273 
0.965999 
1.453039 
4.876954 
0.838468 
4.160294 
3.681812 
3.543859 
2.441716 
4.712821 
0.893701 
3.219032 
4.141749 
2.695614 
1.749030 
4.021242 
1.427872 
0.401415 
2.182879 
2.057155 
0.399685 
4.824898 
2.066248 
3.606921 
1.012024 
0.102085 
3.710545 
2.512686 
4.483775 
2.463771 
1.111046 
4.036047 
3.429770 
2.564085 
3.913001 
4.268238 
1.724378 
2.594812 
2.812097 
4.166095 
2.307633 
3.705798 
2.385127 
1.449382 
1.401412 
4.134157 
0.470624 
2.829285 
4.535573 
2.653503 
4.886439 
4.935258 
2.478401 
1.952687 
3.542179 
3.490426 
2.054772 
2.252724 
1.003112 
1.538546 
4.716495 
2.114158 
0.574593 
3.146265 
4.678242 
4.487594 
2.414503 
1.402621 
2.082406 
0.226600 
0.568715 
4.390039 
3.932399 
2.953842 
0.839421 
0.333811 
2.087999 
1.310046 
3.163095 
1.623572 
3.963549 
3.049535 
1.558829 
1.441950 
0.101008 
4.932375 
2.056993 
2.353732 
0.935488 
3.595539 
2.070227 
3.049646 
4.170132 
0.216492 
2.727888 
3.657726 
2.630996 
4.130508 
0.740132 
2.857596 
4.699224 
0.130171 
1.789994 
2.653066 
0.969592 
2.123805 
4.741065 
2.279638 
0.286901 
1.364636 
1.243187 
3.336435 
2.923466 
2.685137 
3.338657 
3.024474 
2.617512 
0.395650 
0.378206 
3.553000 
3.991189 
2.448434 
1.602646 
3.161322 
2.664926 
4.330534 
1.819047 
0.295922 
3.461042 
2.559179 
3.153518 
3.160267 
2.689350 
4.943512 
0.813332 
3.658943 
2.067317 
0.554397 
0.938581 
2.354218 
1.919034 
2.181767 
0.690653 
4.842500 
4.866903 
4.029310 
2.866973 
2.484416 
4.424960 
3.245180 
1.037416 
3.416149 
0.693613 
2.640061 
1.577471 
3.358539 
1.970595 
3.396518 
3.654461 
0.431638 
0.955697 
1.807979 
3.591904 
3.645048 
1.751491 
4.405237 
2.303990 
3.818809 
4.959634 
3.242571 
1.173026 
1.878667 
0.424338 
1.863680 
1.721167 
0.291241 
0.892990 
4.588140 
2.775657 
0.317950 
2.833320 
3.813072 
3.734099 
3.526933 
1.453134 
0.311570 
1.885472 
3.423729 
3.708088 
0.539933 
3.855366 
4.663786 
2.347912 
2.447271 
3.308833 
4.099403 
1.852507 
0.612823 
2.918211 
1.812141 
3.855394 
4.091238 
3.690808 
4.279732 
0.954917 
0.411975 
4.570973 
1.847907 
2.346630 
2.165857 
2.833435 
1.159702 
0.899956 
1.360368 
2.612836 
1.211525 
3.245840 
1.036565 
4.919613 
3.785774 
4.891932 
4.583399 
1.133685 
2.339202 
2.892232 
0.233088 
4.191709 
3.505056 
3.151299 
1.003850 
2.360450 
2.242537 
4.694658 
1.640181 
3.197454 
0.106633 
1.211154 
0.045361 
0.106749 
3.557784 
2.211218 
2.940184 
4.717486 
3.111173 
4.300552 
2.330322 
4.322699 
2.546392 
3.366887 
4.242312 
1.332166 
3.258818 
3.825711 
2.465851 
0.598020 
1.717943 
2.698939 
4.789729 
0.222999 
0.850238 
0.793579 
2.583448 
3.092775 
0.488237 
4.223629 
1.290229 
0.594870 
0.434783 
1.335590 
0.701619 
3.992567 
3.546808 
3.641802 
3.710053 
1.657981 
2.942354 
1.040375 
0.980680 
0.488746 
4.407261 
0.222992 
1.820912 
2.666080 
4.048703 
4.286763 
3.264099 
0.766646 
1.985702 
3.053828 
0.989644 
2.835940 
3.847407 
3.573092 
0.928715 
4.335644 
2.796721 
2.218944 
4.930514 
3.231505 
3.554534 
0.632133 
2.224072 
2.101341 
4.273935 
0.934125 
3.759322 
2.216290 
1.974500 
4.740003 
2.705036 
1.381761 
4.962994 
4.525948 
4.047841 
4.011697 
3.812711 
2.311940 
4.778343 
0.798413 
0.365768 
0.767987 
3.634353 
4.213176 
4.341079 
4.563067 
3.548820 
2.137800 
1.782011 
3.479334 
0.369305 
0.336545 
4.111467 
2.593378 
2.437886 
3.385403 
3.527503 
1.197209 
0.601692 
0.502003 
0.937211 
3.306728 
1.883764 
0.900205 
2.832676 
0.931605 
4.911902 
1.645387 
3.243545 
4.690245 
2.443800 
3.609313 
0.458231 
1.078153 
2.822489 
4.799310 
0.641221 
1.371309 
1.937111 
2.423232 
4.850643 
2.306416 
2.759776 
3.962110 
4.899794 
0.197663 
2.347512 
3.427296 
1.394871 
2.949204 
3.929299 
2.332083 
1.255933 
0.813063 
3.232288 
4.088609 
1.744667 
3.144190 
0.733997 
4.988212 
2.834435 
3.177797 
3.597525 
3.292665 
4.255950 
1.420014 
3.091975 
4.897171 
2.791323 
0.029086 
2.320402 
2.641965 
2.335502 
0.080178 
1.604075 
2.235296 
0.277841 
3.951587 
0.662592 
1.672713 
1.900792 
4.591891 
4.004795 
3.156724 
0.404954 
2.237083 
2.245334 
2.149621 
0.381273 
2.979330 
2.137833 
3.215708 
1.157127 
0.735359 
1.508373 
0.413077 
2.155373 
4.600349 
0.310247 
4.946695 
4.629435 
2.630649 
2.588661 
1.964937 
2.710828 
4.192736 
4.200233 
2.988669 
3.144323 
4.862825 
4.661381 
0.045115 
4.454716 
3.666177 
3.201840 
4.859670 
0.903260 
0.447173 
2.009291 
1.284534 
3.426503 
4.137125 
4.500241 
4.583630 
4.882483 
1.008615 
4.996707 
2.037856 
0.608964 
0.306954 
1.984551 
0.238399 
2.937603 
4.573212 
2.203336 
0.648431 
3.765948 
1.403569 
3.637100 
1.910271 
1.266394 
3.298481 
1.955386 
0.721110 
1.964658 
0.157225 
0.580780 
2.867918 
0.604398 
2.590072 
4.152451 
4.030901 
1.737196 
3.652692 
3.614532 
1.619679 
4.661307 
3.611238 
3.657535 
0.270271 
3.918193 
0.642086 
0.508669 
1.855796 
0.215298 
2.712005 
2.504227 
3.981246 
4.115574 
1.141327 
0.891517 
0.381969 
4.439808 
2.846903 
1.103079 
1.404466 
3.004128 
1.683860 
4.272384 
3.608526 
4.273931 
3.424835 
2.639427 
1.011127 
2.077528 
1.253959 
2.630806 
1.738835 
4.865198 
1.288341 
2.009105 
3.783391 
1.930428 
2.517775 
0.639187 
2.145726 
0.229780 
3.143414 
1.126972 
4.345355 
4.284741 
2.018489 
4.727324 
3.724550 
4.865391 
0.830403 
0.129016 
2.869519 
2.514262 
4.401401 
1.478045 
1.788193 
2.826236 
4.117473 
2.799320 
4.903764 
0.371432 
0.430127 
1.642599 
0.236630 
1.718468 
3.651705 
4.020020 
3.648896 
1.169479 
4.659207 
0.794622 
1.399260 
2.802622 
1.921594 
0.744614 
2.087364 
3.940083 
0.471938 
0.811914 
3.805474 
1.302340 
0.940930 
1.674993 
3.816602 
0.342331 
3.153038 
0.604796 
3.168567 
2.270510 
3.404116 
3.072331 
2.641942 
3.834243 
4.714931 
2.878572 
0.552711 
3.366635 
1.898592 
4.201607 
4.536114 
1.557800 
4.996229 
0.935374 
4.360422 
1.917823 
1.679988 
1.447785 
0.857905 
2.151926 
2.259699 
4.663380 
3.454266 
3.200630 
1.338372 
2.270869 
3.542961 
4.491410 
2.875664 
1.711528 
1.761920 
1.279780 
4.783859 
4.403862 
0.114023 
4.498789 
2.282434 
0.666734 
2.865424 
4.181026 
4.868341 
2.401538 
0.738825 
4.864570 
3.336913 
0.099247 
1.782392 
0.016901 
1.547032 
2.640298 
2.168827 
3.806731 
2.303677 
0.623093 
2.007361 
3.642049 
2.893962 
0.550321 
3.133459 
0.769626 
2.261849 
4.895380 
2.049407 
2.045708 
4.299242 
2.163430 
1.544498 
1.581675 
2.830164 
4.409922 
0.762700 
2.698505 
1.811460 
1.501526 
2.563074 
0.148373 
1.600772 
4.345467 
0.165274 
3.147804 
1.985765 
2.334101 
1.954535 
4.289442 
2.957194 
3.961896 
2.931491 
0.851156 
4.512218 
1.064951 
1.620782 
1.774067 
0.960330 
3.670189 
3.819775 
0.259572 
0.833619 
0.364273 
1.841247 
3.663783 
4.774195 
2.603948 
1.362287 
1.585655 
4.105473 
3.925362 
1.734028 
0.706245 
3.270828 
1.899302 
3.854049 
0.256593 
4.233403 
0.808584 
4.546035 
2.190598 
4.770480 
2.477526 
3.041754 
4.282698 
3.542477 
4.662536 
1.056764 
4.502808 
3.332726 
4.876540 
4.762380 
4.166345 
0.240812 
1.603627 
2.830127 
0.015007 
4.207574 
4.192415 
1.600662 
3.313048 
3.117776 
3.334690 
4.019293 
1.388605 
0.233993 
2.873342 
1.645198 
-4.467396 
-3.681926 
-1.191232 
-1.657993 
-3.452406 
-3.668759 
-4.699747 
-2.735104 
-2.211236 
-4.362283 
-3.791868 
-1.714043 
-2.695009 
-3.668408 
-1.476423 
-1.861353 
-3.909220 
-3.080050 
-4.691480 
-3.924227 
-2.287624 
-3.883895 
-0.524890 
-0.600672 
-2.001671 
-3.859580 
-4.619965 
-3.390275 
-4.093573 
-2.493306 
-0.035473 
-3.560968 
-1.175232 
-1.226706 
-0.218962 
-4.627639 
-4.895464 
-4.918708 
-2.362743 
-2.106700 
-4.280992 
-1.154611 
-3.820744 
-1.976000 
-4.823020 
-0.297167 
-3.837353 
-3.732240 
-3.377216 
-3.528833 
-2.656467 
-0.664841 
-2.412728 
-3.181357 
-1.265513 
-4.414399 
-2.040937 
-0.885477 
-2.804675 
-1.134510 
-3.378784 
-2.840147 
-4.695478 
-4.554016 
-4.066854 
-4.914440 
-4.181655 
-3.962318 
-4.833148 
-1.544398 
-1.069018 
-4.114140 
-2.699009 
-4.889761 
-1.090140 
-2.522029 
-0.186928 
-4.927493 
-1.254269 
-3.564145 
-3.456326 
-3.910736 
-4.228986 
-0.869054 
-2.092093 
-0.494498 
-0.283452 
-4.133030 
-1.379976 
-3.088127 
-0.267540 
-4.758759 
-0.928274 
-4.963018 
-4.312776 
-4.995128 
-4.877458 
-3.494431 
-3.957446 
-4.700606 
-0.048829 
-0.026464 
-3.824745 
-2.737838 
-4.916225 
-4.914885 
-0.259867 
-0.103154 
-4.842378 
-1.514135 
-3.667298 
-3.298704 
-0.424871 
-2.896284 
-4.167757 
-2.516964 
-3.390782 
-4.451209 
-1.649995 
-4.770758 
-2.539336 
-1.917535 
-4.529517 
-3.467610 
-1.880553 
-3.842293 
-3.462739 
-1.758010 
-2.336724 
-2.420184 
-1.468616 
-2.375553 
-2.446648 
-0.293361 
-0.113391 
-2.362874 
-0.208247 
-0.373258 
-2.466027 
-0.050624 
-1.887393 
-1.133326 
-3.349328 
-2.312265 
-4.029609 
-2.517085 
-4.829229 
-2.420391 
-1.968295 
-1.479224 
-2.191149 
-4.507631 
-3.396759 
-1.720666 
-2.975241 
-0.277311 
-0.562960 
-1.437980 
-2.035321 
-2.899684 
-3.858164 
-3.503937 
-0.275236 
-1.304812 
-3.797299 
-0.388627 
-3.667686 
-4.005546 
-0.761885 
-1.133713 
-4.056170 
-2.649278 
-2.267039 
-2.405498 
-4.961543 
-1.296648 
-4.922584 
-4.790772 
-3.717040 
-1.890878 
-1.269996 
-0.908189 
-1.398509 
-4.666754 
-2.628855 
-4.373750 
-4.944066 
-3.191814 
-0.811730 
-1.979387 
-1.091498 
-4.669894 
-0.483324 
-1.366735 
-0.974706 
-4.280623 
-1.755362 
-4.642392 
-3.286169 
-2.517247 
-0.776106 
-2.342339 
-0.166525 
-3.043145 
-4.747837 
-0.128068 
-4.339793 
-4.670420 
-4.918840 
-3.056833 
-1.561298 
-1.188836 
-3.965021 
-2.959807 
-0.855590 
-1.593876 
-2.333556 
-0.799655 
-4.785691 
-3.145286 
-2.779042 
-0.877189 
-2.815180 
-3.262366 
-2.243923 
-3.789886 
-2.542989 
-3.999285 
-3.432279 
-0.829158 
-1.516532 
-4.208385 
-3.171496 
-1.683056 
-2.251529 
-2.919333 
-1.811124 
-1.591322 
-2.589753 
-1.729964 
-4.648155 
-4.151051 
-2.918800 
-3.613176 
-2.110857 
-3.774390 
-0.207052 
-4.444414 
-4.574045 
-4.992743 
-2.589700 
-2.353087 
-0.869931 
-0.404880 
-0.615454 
-3.113854 
-4.194766 
-3.158443 
-2.113139 
-2.627045 
-3.987601 
-3.629671 
-1.835429 
-2.159098 
-0.312727 
-4.086958 
-0.078431 
-2.123852 
-0.678280 
-2.668184 
-3.853816 
-0.326435 
-1.819235 
-1.772615 
-3.939611 
-3.930092 
-0.547005 
-4.146663 
-3.374506 
-0.121051 
-4.139405 
-0.964206 
-2.474138 
-0.009337 
-1.369086 
-3.089592 
-3.123191 
-0.563852 
-1.248035 
-0.236330 
-3.190897 
-0.235636 
-3.866001 
-0.026326 
-2.394734 
-4.178728 
-4.113284 
-2.473165 
-1.302580 
-4.791564 
-0.141349 
-0.156396 
-0.118000 
-1.960584 
-1.929011 
-4.057611 
-0.890676 
-2.476017 
-3.204274 
-4.265182 
-2.597067 
-2.343679 
-0.229387 
-0.071205 
-2.353015 
1.598473 
3.160797 
0.476207 
2.162325 
4.408832 
0.712537 
0.353222 
4.644468 
4.578537 
0.379548 
2.039203 
3.757266 
4.492832 
4.512368 
0.059846 
4.284397 
4.653717 
0.216242 
4.402396 
1.614300 
2.145253 
3.460007 
2.504976 
4.621269 
1.664280 
1.770158 
2.218336 
4.007959 
1.999545 
2.289541 
1.360975 
3.598018 
0.450338 
1.837181 
0.760344 
4.859170 
2.549718 
1.113565 
4.503638 
2.128256 
1.493113 
1.542841 
0.885522 
0.985945 
1.055209 
0.945368 
0.270342 
0.708925 
1.161609 
4.672738 
2.323225 
3.306862 
3.132745 
4.828202 
2.928131 
4.797025 
1.598360 
0.146467 
3.804984 
3.597905 
2.436008 
0.165959 
2.195923 
2.886347 
2.003140 
2.956267 
2.745517 
4.552858 
4.069833 
2.249155 
1.681114 
0.562946 
3.791996 
2.566636 
1.548891 
4.847204 
3.512003 
1.819233 
0.556130 
4.673613 
1.491971 
2.879355 
2.980474 
4.624715 
2.707557 
0.908606 
4.421740 
4.305917 
1.055073 
3.226724 
2.903822 
3.491082 
3.392683 
0.099745 
1.377428 
0.395823 
3.056012 
4.122945 
4.948681 
2.125845 
1.372100 
1.629795 
2.688790 
0.164095 
4.196430 
4.237681 
0.011300 
2.708433 
1.056914 
0.567430 
2.382046 
2.548884 
3.446785 
0.362520 
2.173600 
1.154342 
1.271126 
1.595340 
0.460259 
2.326199 
4.812063 
3.364081 
0.817281 
3.214746 
3.463826 
2.194709 
3.610569 
1.519838 
1.317654 
3.559250 
3.645683 
2.689753 
0.189044 
1.334473 
2.853849 
4.385474 
0.572155 
2.865149 
2.093908 
1.629069 
3.432579 
4.475953 
4.177953 
1.879363 
4.838473 
1.351552 
3.033706 
1.109599 
2.946892 
3.493965 
3.435799 
2.768955 
1.858046 
4.253079 
0.983702 
0.321872 
1.447788 
4.594271 
1.841711 
2.765441 
3.153521 
0.487393 
0.455195 
3.342565 
1.821867 
3.309044 
2.728040 
2.394021 
1.174192 
4.821947 
4.023090 
4.606771 
4.297901 
3.201043 
1.486134 
4.136374 
4.552595 
4.519840 
0.245973 
2.499487 
3.013804 
3.681772 
0.268443 
4.871850 
2.934851 
1.252145 
0.193722 
4.382639 
0.846416 
2.035432 
2.148081 
3.999937 
2.522826 
2.603276 
2.342502 
4.344693 
0.912319 
0.070542 
1.738714 
2.086511 
4.892488 
0.761804 
1.693282 
4.190389 
3.962846 
3.179415 
3.326763 
3.515442 
2.699255 
3.572736 
1.014929 
0.713059 
2.254508 
1.283372 
0.584909 
0.189359 
2.535516 
0.778631 
4.571998 
3.381932 
2.814064 
1.720078 
2.381869 
0.336890 
4.323354 
4.724371 
4.681582 
0.235673 
4.794912 
1.420296 
2.322184 
4.687401 
2.182100 
4.015465 
3.877790 
1.144946 
2.194881 
2.204553 
4.660388 
4.894136 
0.777290 
0.675317 
0.607195 
3.031798 
1.958688 
1.192104 
3.221157 
4.494205 
1.970736 
2.793154 
2.876137 
4.784799 
4.513233 
0.258006 
0.121689 
3.836587 
4.982377 
4.803271 
4.072259 
4.777289 
1.223568 
1.394443 
4.464690 
3.405668 
0.409909 
3.342480 
4.550614 
2.604790 
0.547034 
4.211002 
2.498926 
1.324323 
4.886319 
3.106121 
4.356121 
1.845008 
4.298225 
2.577277 
1.339213 
1.268960 
0.370432 
4.215350 
1.053759 
4.883665 
4.473355 
1.175448 
3.720251 
4.455732 
0.978720 
2.792511 
4.233021 
2.202287 
4.186954 
3.697711 
0.607955 
4.596863 
2.040191 
0.158570 
2.201653 
2.587225 
4.369572 
4.700579 
3.911548 
4.255891 
2.806699 
3.267669 
1.100899 
2.104924 
0.844947 
2.440111 
3.373884 
1.215379 
1.655461 
4.427644 
1.099043 
1.128816 
0.603092 
4.819294 
0.584548 
1.581812 
2.611805 
4.817569 
3.784100 
1.798759 
3.515280 
4.392055 
1.395622 
0.555471 
4.550624 
3.597275 
3.142696 
3.920196 
3.297853 
2.054245 
3.176087 
1.104553 
0.321914 
4.276986 
3.209476 
1.166861 
1.717097 
1.583361 
2.382239 
3.372558 
1.011004 
3.481282 
4.501374 
1.614096 
3.300576 
0.085922 
3.195908 
0.912381 
4.903491 
1.980008 
2.711141 
3.418770 
1.372062 
4.106763 
3.974242 
0.922687 
2.704038 
2.116938 
4.842883 
1.001891 
4.171182 
3.018970 
2.106444 
4.493096 
2.295956 
0.315920 
0.659957 
4.013053 
1.899281 
3.042195 
2.385611 
2.910285 
1.523478 
1.886985 
4.524382 
4.824054 
1.972906 
2.720289 
0.736435 
1.876397 
4.700297 
3.447576 
0.295167 
1.072359 
2.554338 
4.269409 
1.995046 
0.258376 
1.386346 
1.837929 
1.260267 
0.557529 
4.856899 
-3.366711 
-0.050625 
-2.152855 
-3.682631 
-0.710581 
-1.165908 
-0.581912 
-3.752777 
-3.551519 
-3.492198 
-0.276254 
-0.438503 
-3.016579 
-0.100308 
-2.411409 
-0.736868 
-0.836743 
-4.287807 
-0.437165 
-4.284319 
-4.582973 
-1.509525 
-1.838658 
-3.852382 
-3.504571 
-2.097034 
-0.238729 
-0.342499 
-3.357301 
-0.796257 
-0.199398 
-1.724012 
-0.846882 
-2.352253 
-0.406644 
-1.557463 
-3.518161 
-0.988556 
-0.310240 
-2.069680 
-4.480753 
-0.586494 
-2.508183 
-2.497332 
-0.686802 
-4.919592 
-3.234200 
-1.523546 
-4.207399 
-3.671365 
-0.807865 
-3.790373 
-0.180890 
-2.646523 
-2.642755 
-3.685461 
-4.743556 
-2.881484 
-4.027960 
-3.100857 
-3.677741 
-4.227359 
-4.824870 
-4.524622 
-1.579612 
-0.231514 
-1.082086 
-0.097773 
-1.220070 
-1.392325 
-2.167453 
-0.700823 
-1.978819 
-4.675636 
-3.198155 
-2.665621 
-4.595229 
-1.432355 
-4.189167 
-3.802628 
-0.103721 
-4.997032 
-2.593000 
-0.284611 
-2.643554 
-0.235755 
-3.970072 
-2.387111 
-3.117238 
-2.998032 
-0.487968 
-1.794979 
-2.225391 
-0.312838 
-1.319602 
-3.805003 
-0.544352 
-2.401687 
-3.902776 
-1.764421 
-3.794012 
-1.070229 
-2.465244 
-0.772832 
-0.745866 
-0.663399 
-3.438453 
-0.341094 
-2.095755 
-2.627620 
-4.143722 
-2.199476 
-2.624652 
-1.736722 
-2.484087 
-0.268207 
-1.972477 
-1.454158 
-2.655318 
-0.089715 
-4.452190 
-3.143286 
-1.884695 
-1.677582 
-3.456124 
-3.204296 
-0.482585 
-4.000476 
-0.605983 
-4.385361 
-0.764897 
-4.399996 
-0.455590 
-3.230142 
-0.172828 
-1.201456 
-3.893541 
-3.611281 
-1.542550 
-0.989296 
-1.238901 
-0.686272 
-3.188771 
-3.863554 
-2.422994 
-0.672858 
-4.131760 
-4.395471 
-2.127016 
-1.787078 
-4.485187 
-1.579207 
-4.930364 
-1.369881 
-3.256788 
-3.386488 
-4.574177 
-3.739373 
-2.386964 
-0.180161 
-3.124733 
-3.151862 
-4.580156 
-3.580324 
-1.382004 
-4.752985 
-4.781780 
-0.275545 
-3.364265 
-1.324330 
-1.264841 
-4.603167 
-2.010602 
-4.453612 
-3.466720 
-4.433596 
-0.126470 
-2.598480 
-3.829067 
-2.253486 
-4.385558 
-3.314253 
-3.832693 
-4.315923 
-4.684134 
-2.089481 
-2.702411 
-4.258311 
-0.828854 
-0.089375 
-4.438472 
-3.953587 
-3.241237 
-4.018629 
-2.533911 
-4.623240 
-3.771613 
-2.315691 
-4.898786 
-2.135878 
-3.640020 
-1.163627 
-1.739044 
-0.650622 
-0.617239 
-0.205764 
-0.084218 
-0.743709 
-2.804245 
-3.913285 
-2.997195 
-2.189803 
-2.227538 
-1.829888 
-1.505726 
-1.911673 
-3.919369 
-4.208137 
-1.169984 
-4.748222 
-4.297512 
-0.608456 
-3.701810 
-2.538748 
-4.627085 
-1.235721 
-2.161989 
-3.398698 
-3.551411 
-2.060775 
-0.534576 
-2.191432 
-3.224401 
-2.273620 
-2.842054 
-3.841641 
-2.479384 
-2.926272 
-4.585350 
-0.283629 
-1.839557 
-2.582545 
-2.473433 
-4.067095 
-4.412434 
-3.979158 
-0.978768 
-3.331803 
-3.187295 
-2.148752 
-3.080025 
-2.484807 
-2.757208 
-1.781835 
-0.023555 
-2.384293 
-3.017556 
-2.185544 
-0.782991 
-1.568967 
-4.246319 
-1.317567 
-3.760399 
-2.470721 
-3.591187 
-1.602453 
-1.312361 
-1.070571 
-4.528724 
-0.897711 
-1.354201 
-1.368281 
-3.480256 
-3.827633 
-0.435376 
-2.892690 
-2.806792 
-1.414144 
-1.224493 
-0.994087 
-3.562896 
-4.304518 
-3.478893 
-1.320104 
-1.086353 
-3.502448 
-3.704398 
-4.103909 
-0.687992 
-4.487389 
-0.672876 
-4.934311 
-0.804955 
-4.433274 
-2.405032 
-4.396142 
-1.035727 
-3.717393 
-0.466713 
-0.564451 
-4.615104 
-1.820913 
-1.932732 
-3.095360 
-0.648547 
-2.368109 
-0.988050 
-3.455338 
-3.782253 
-2.212543 
-4.449425 
-2.345149 
-1.517060 
-2.928318 
-3.665253 
-2.603413 
-1.430766 
-2.369651 
-1.707322 
-2.118758 
-1.857039 
-2.380197 
-2.053069 
-2.661994 
-1.813471 
-4.458100 
-2.058135 
-2.849198 
-3.175493 
-2.524848 
-3.413649 
-2.790597 
-4.345761 
-0.346382 
-0.885957 
-4.994308 
-2.714490 
-1.874007 
-3.449646 
-1.496743 
-4.086549 
-2.899070 
-3.841892 
-0.603609 
-0.827388 
-2.507145 
-3.207022 
-2.258154 
-4.876796 
-4.914344 
-4.376911 
-1.733835 
-2.294541 
1.429980 
-4.395829 
-4.108013 
-0.888080 
-1.453964 
-1.957211 
-4.063573 
-3.978812 
-0.370860 
-1.854170 
-3.324573 
-0.717242 
-2.740127 
-3.318880 
-3.431732 
-4.614133 
-1.768526 
-4.928475 
-3.700682 
-4.667596 
-3.770366 
-4.304292 
-0.494984 
-1.277511 
-2.511314 
-2.753138 
-1.154307 
-2.425658 
-2.130049 
-2.888141 
-4.720199 
-3.560029 
-2.283970 
-3.828212 
-4.448110 
-3.737934 
-0.785422 
-3.511683 
-2.716745 
-1.156283 
-0.365853 
-1.041317 
-1.873524 
-3.105979 
-4.360198 
-0.305256 
-2.720113 
-1.128723 
-0.233731 
-1.420795 
-0.796320 
-4.004097 
-0.725086 
-1.291304 
-0.281608 
-3.236400 
-4.044442 
-1.435915 
-0.662058 
-1.174491 
-4.324056 
-0.382257 
-4.734520 
-1.608026 
-4.210468 
-4.182630 
-0.345959 
-4.995891 
-2.694313 
-3.062704 
-1.152174 
-3.060166 
-4.104022 
-3.025698 
-1.166145 
-3.464219 
-3.330954 
-3.886257 
-4.592943 
-3.564685 
-0.307052 
-0.389262 
-2.568782 
-1.032139 
-1.680566 
-2.850390 
-4.268539 
-0.725008 
-4.286304 
-4.930597 
-1.899499 
-3.610361 
-0.312854 
-1.634020 
-0.218386 
-4.523323 
-0.816650 
-0.564345 
-4.519214 
-3.510963 
-3.627050 
-0.671387 
-1.571128 
-2.731071 
-3.697085 
-2.737273 
-1.195291 
-2.028039 
-1.623531 
-0.788233 
-0.592725 
-1.930583 
-1.177495 
-3.161507 
-2.962722 
-2.858062 
-1.011897 
-2.231260 
-3.583069 
-0.298201 
-2.161857 
-0.482569 
-3.908562 
-2.474711 
-2.116588 
-4.126948 
-1.998034 
-2.933238 
-4.691293 
-1.517247 
-1.444201 
-3.318343 
-2.188635 
-3.015329 
-1.049414 
-0.885720 
-0.752602 
-2.244705 
-2.913759 
-2.376132 
-3.032938 
-3.506484 
-4.306715 
-4.210433 
-1.667990 
-2.269437 
-2.068495 
-2.679887 
-4.500697 
-0.651564 
-2.978088 
-1.662555 
-1.134133 
-1.886650 
-4.137266 
-3.250721 
-1.013598 
-1.135299 
-1.183959 
-0.704891 
-2.652547 
-2.628160 
-4.023234 
-4.841181 
-0.643489 
-0.072648 
-0.726901 
-1.396091 
-2.317353 
-3.640660 
-3.772223 
-0.350291 
-2.147144 
-3.078938 
-4.560724 
-3.815135 
-0.348375 
-1.629219 
-1.495022 
-4.849072 
-2.280783 
-4.473110 
-1.511627 
-3.414915 
-1.359760 
-0.648893 
-1.665636 
-2.373358 
-1.784192 
-2.849595 
-3.078249 
-4.436739 
-0.477755 
-2.101483 
-4.277920 
-1.121243 
-2.174132 
-2.517334 
-4.491485 
-3.645482 
-1.289557 
-4.841775 
-0.792626 
-4.368495 
-4.402500 
-4.607761 
-4.716870 
-1.031718 
-1.102783 
-4.565943 
-3.312501 
-0.575893 
-1.077570 
-1.727416 
-1.935653 
-1.726463 
-3.393053 
-4.309011 
-3.510655 
-1.242647 
-2.387260 
-2.947394 
-1.720402 
-4.488744 
-2.225314 
-2.841645 
-1.662875 
-2.230136 
-0.358979 
-1.154360 
-0.875618 
-1.648536 
-0.996135 
-1.668244 
-1.017032 
-0.398635 
-1.276005 
-0.733902 
-1.430353 
-2.378788 
-0.299845 
-4.742854 
-2.954681 
-1.377415 
-1.470271 
-4.890334 
-3.103878 
-4.863323 
-4.199346 
-1.614533 
-1.105971 
-1.586606 
-4.561927 
-2.826373 
-1.075349 
-1.787242 
-0.668018 
-2.738225 
-4.017377 
-1.026997 
-3.892584 
-4.892995 
-2.675534 
-4.888720 
-1.561239 
-3.692565 
-0.287354 
-2.837245 
-4.426468 
-1.717707 
-0.216033 
-4.726313 
-1.460561 
-3.170713 
-1.103728 
-2.930832 
-3.061048 
-4.207606 
-2.794155 
-2.260393 
-0.822139 
-3.900125 
-3.846999 
-0.384066 
-1.726498 
-4.922348 
-2.171308 
-2.394516 
-2.660573 
-1.188685 
-3.421514 
-1.553157 
-1.081681 
-1.097047 
-1.441877 
-2.642920 
-4.789613 
-1.729231 
-0.480165 
-4.216081 
-3.446938 
-0.696197 
-3.942393 
-4.907499 
-3.866911 
-0.046121 
-2.838331 
-1.927959 
-4.253727 
-0.632486 
-4.188352 
-0.075867 
-4.532611 
-3.035350 
-0.459933 
-1.259110 
-2.957699 
-2.631241 
-3.653626 
-0.618272 
-3.819926 
-2.075140 
-2.171429 
-4.901607 
-3.172187 
-3.613306 
-2.544527 
-2.961800 
-0.342536 
-3.024691 
-2.177881 
-3.789474 
-3.720889 
-1.120274 
-3.696974 
-2.587799 
-1.166395 
-1.535305 
-4.515758 
-0.420123 
-2.167791 
-3.704109 
-0.495990 
-1.700402 
-1.739460 
-0.955923 
-2.959512 
-4.697159 
-3.587163 
-1.613138 
-0.315430 
-2.407090 
